encog,BasicNetwork,java,3.3.0,1,1416832687086
[BASIC]
[BASIC:PARAMS]
[BASIC:NETWORK]
beginTraining=0
connectionLimit=0
contextTargetOffset=0,0,0
contextTargetSize=0,0,0
endTraining=2
hasContext=f
inputCount=1108
layerCounts=1,832,1109
layerFeedCounts=1,831,1108
layerContextCount=0,0,0
layerIndex=0,1,833
output=0,0,0,0,0,0,0,0,0,0,0,0,0,0,0,0,0,0,0,0,0,0,0,0,0,0,0,0,0,0,0,0,0,0,0,0,0,0,0,0,0,0,0,0,0,0,0,0,0,0,0,0,0,0,0,0,0,0,0,0,0,0,0,0,0,0,0,0,0,0,0,0,0,0,0,0,0,0,0,0,0,0,0,0,0,0,0,0,0,0,0,0,0,0,0,0,0,0,0,0,0,0,0,0,0,0,0,0,0,0,0,0,0,0,0,0,0,0,0,0,0,0,0,0,0,0,0,0,0,0,0,0,0,0,0,0,0,0,0,0,0,0,0,0,0,0,0,0,0,0,0,0,0,0,0,0,0,0,0,0,0,0,0,0,0,0,0,0,0,0,0,0,0,0,0,0,0,0,0,0,0,0,0,0,0,0,0,0,0,0,0,0,0,0,0,0,0,0,0,0,0,0,0,0,0,0,0,0,0,0,0,0,0,0,0,0,0,0,0,0,0,0,0,0,0,0,0,0,0,0,0,0,0,0,0,0,0,0,0,0,0,0,0,0,0,0,0,0,0,0,0,0,0,0,0,0,0,0,0,0,0,0,0,0,0,0,0,0,0,0,0,0,0,0,0,0,0,0,0,0,0,0,0,0,0,0,0,0,0,0,0,0,0,0,0,0,0,0,0,0,0,0,0,0,0,0,0,0,0,0,0,0,0,0,0,0,0,0,0,0,0,0,0,0,0,0,0,0,0,0,0,0,0,0,0,0,0,0,0,0,0,0,0,0,0,0,0,0,0,0,0,0,0,0,0,0,0,0,0,0,0,0,0,0,0,0,0,0,0,0,0,0,0,0,0,0,0,0,0,0,0,0,0,0,0,0,0,0,0,0,0,0,0,0,0,0,0,0,0,0,0,0,0,0,0,0,0,0,0,0,0,0,0,0,0,0,0,0,0,0,0,0,0,0,0,0,0,0,0,0,0,0,0,0,0,0,0,0,0,0,0,0,0,0,0,0,0,0,0,0,0,0,0,0,0,0,0,0,0,0,0,0,0,0,0,0,0,0,0,0,0,0,0,0,0,0,0,0,0,0,0,0,0,0,0,0,0,0,0,0,0,0,0,0,0,0,0,0,0,0,0,0,0,0,0,0,0,0,0,0,0,0,0,0,0,0,0,0,0,0,0,0,0,0,0,0,0,0,0,0,0,0,0,0,0,0,0,0,0,0,0,0,0,0,0,0,0,0,0,0,0,0,0,0,0,0,0,0,0,0,0,0,0,0,0,0,0,0,0,0,0,0,0,0,0,0,0,0,0,0,0,0,0,0,0,0,0,0,0,0,0,0,0,0,0,0,0,0,0,0,0,0,0,0,0,0,0,0,0,0,0,0,0,0,0,0,0,0,0,0,0,0,0,0,0,0,0,0,0,0,0,0,0,0,0,0,0,0,0,0,0,0,0,0,0,0,0,0,0,0,0,0,0,0,0,0,0,0,0,0,0,0,0,0,0,0,0,0,0,0,0,0,0,0,0,0,0,0,0,0,0,0,0,0,0,0,0,0,0,0,0,0,0,0,0,0,0,0,0,0,0,0,0,0,0,0,0,0,0,0,0,0,0,0,0,0,0,0,0,0,0,0,0,0,0,0,0,0,0,0,0,0,0,0,0,0,0,0,0,0,0,0,0,0,0,0,0,0,0,0,0,0,0,0,0,0,0,0,0,0,0,0,0,0,0,0,0,0,0,0,0,0,0,0,0,0,0,0,0,0,0,0,0,0,0,0,0,0,0,0,0,0,0,0,0,0,0,0,0,0,0,0,0,0,0,0,0,0,0,0,0,0,0,0,0,0,0,0,0,0,0,0,0,0,0,0,0,0,0,0,0,0,1,0,0,0,0,0,0,0,0,0,0,0,0,0,0,0,0,0,0,0,0,0,0,0,0,0,0,0,0,0,0,0,0,0,0,0,0,0,0,0,0,0,0,0,0,0,0,0,0,0,0,0,0,0,0,0,0,0,0,0,0,0,0,0,0,0,0,0,0,0,0,0,0,0,0,0,0,0,0,0,0,0,0,0,0,0,0,0,0,0,0,0,0,0,0,0,0,0,0,0,0,0,0,0,0,0,0,0,0,0,0,0,0,0,0,0,0,0,0,0,0,0,0,0,0,0,0,0,0,0,0,0,0,0,0,0,0,0,0,0,0,0,0,0,0,0,0,0,0,0,0,0,0,0,0,0,0,0,0,0,0,0,0,0,0,0,0,0,0,0,0,0,0,0,0,0,0,0,0,0,0,0,0,0,0,0,0,0,0,0,0,0,0,0,0,0,0,0,0,0,0,0,0,0,0,0,0,0,0,0,0,0,0,0,0,0,0,0,0,0,0,0,0,0,0,0,0,0,0,0,0,0,0,0,0,0,0,0,0,0,0,0,0,0,0,0,0,0,0,0,0,0,0,0,0,0,0,0,0,0,0,0,0,0,0,0,0,0,0,0,0,0,0,0,0,0,0,0,0,0,0,0,0,0,0,0,0,0,0,0,0,0,0,0,0,0,0,0,0,0,0,0,0,0,0,0,0,0,0,0,0,0,0,0,0,0,0,0,0,0,0,0,0,0,0,0,0,0,0,0,0,0,0,0,0,0,0,0,0,0,0,0,0,0,0,0,0,0,0,0,0,0,0,0,0,0,0,0,0,0,0,0,0,0,0,0,0,0,0,0,0,0,0,0,0,0,0,0,0,0,0,0,0,0,0,0,0,0,0,0,0,0,0,0,0,0,0,0,0,0,0,0,0,0,0,0,0,0,0,0,0,0,0,0,0,0,0,0,0,0,0,0,0,0,0,0,0,0,0,0,0,0,0,0,0,0,0,0,0,0,0,0,0,0,0,0,0,0,0,0,0,0,0,0,0,0,0,0,0,0,0,0,0,0,0,0,0,0,0,0,0,0,0,0,0,0,0,0,0,0,0,0,0,0,0,0,0,0,0,0,0,0,0,0,0,0,0,0,0,0,0,0,0,0,0,0,0,0,0,0,0,0,0,0,0,0,0,0,0,0,0,0,0,0,0,0,0,0,0,0,0,0,0,0,0,0,0,0,0,0,0,0,0,0,0,0,0,0,0,0,0,0,0,0,0,0,0,0,0,0,0,0,0,0,0,0,0,0,0,0,0,0,0,0,0,0,0,0,0,0,0,0,0,0,0,0,0,0,0,0,0,0,0,0,0,0,0,0,0,0,0,0,0,0,0,0,0,0,0,0,0,0,0,0,0,0,0,0,0,0,0,0,0,0,0,0,0,0,0,0,0,0,0,0,0,0,0,0,0,0,0,0,0,0,0,0,0,0,0,0,0,0,0,0,0,0,0,0,0,0,0,0,0,0,0,0,0,0,0,0,0,0,0,0,0,0,0,0,0,0,0,0,0,0,0,0,0,0,0,0,0,0,0,0,0,0,0,0,0,0,0,0,0,0,0,0,0,0,0,0,0,0,0,0,0,0,0,0,0,0,0,0,0,0,0,0,0,0,0,0,0,0,0,0,0,0,0,0,0,0,0,0,0,0,0,0,0,0,0,0,0,0,0,0,0,0,0,0,0,0,0,0,0,0,0,0,0,0,0,0,0,0,0,0,0,0,0,0,0,0,0,0,0,0,0,0,0,0,0,0,0,0,0,0,0,0,0,0,0,0,0,0,0,0,0,0,0,0,0,0,0,0,0,0,0,0,0,0,0,0,0,0,0,0,0,0,0,0,0,0,0,0,0,0,0,0,0,0,0,0,0,0,0,0,0,0,0,0,0,0,0,0,0,0,0,0,0,0,0,0,0,0,0,0,0,0,0,0,0,0,0,0,0,0,0,0,0,0,0,0,0,0,0,0,0,0,0,0,0,0,0,0,0,0,0,0,0,0,0,0,0,0,0,0,0,0,0,0,0,0,0,0,0,0,0,0,0,0,0,0,0,0,0,0,0,0,0,0,0,0,0,0,0,0,0,0,0,0,0,0,0,0,0,0,0,0,0,0,0,0,0,0,0,0,0,0,0,0,0,0,0,0,0,0,0,0,0,0,0,0,0,0,0,0,0,0,0,0,0,0,0,0,0,0,0,0,0,0,0,0,0,0,0,0,0,0,0,0,0,0,0,0,0,0,0,0,0,0,0,0,0,0,0,0,0,0,0,0,0,0,0,0,0,0,0,0,0,0,0,0,0,0,0,0,0,0,0,0,0,0,0,0,0,0,0,0,0,0,0,0,0,0,0,0,0,0,0,0,0,0,0,0,0,0,0,0,0,0,0,0,0,0,0,0,0,0,0,0,0,0,0,0,0,0,0,0,0,0,0,0,0,0,0,0,0,0,0,0,0,0,0,0,0,0,0,0,0,0,0,1
outputCount=1
weightIndex=0,832,922411
weights=##0
##double#922411
   -3205.6576372243,3495.4660577315,3494.9875839074,-3205.3389698802,3204.7201472348,-3205.3559499488,-3205.5109766252,3495.4027238478,-3205.6039844774,3495.8257831962,3495.5692064732,3495.1241199963,3495.4627566977,3495.6768547228,-3205.1747175925,3495.5172262405,-3205.6403459673,-3205.0116428876,3495.4970087278,3494.9339114027,-3205.509293202,3495.4283683338,3495.1435325918,3495.8296926759,3495.6880000395,3495.4603316457,3495.4925738393,-1754.8117899072,3495.7480276146,-3205.520171416,-3205.6596119408,3495.1780811873,3495.0383190971,3495.6175249763,3495.2016352179,3495.6778838815,3494.8876927717,3494.9845095058,3495.3292372435,-3205.2890763525,3495.4681556995,-3205.019488443,3495.0160314784,-3205.5735336295,3494.9939925386,-3205.6152693464,3495.7330221052,-3205.3471497902,-3205.4425351391,3494.8221842668,3495.4382365362,3495.5778351018,-3205.8007881129,3494.8985557555,-3205.0001751141,3495.1572119694,3495.635658233,3495.0680593988,-3205.4974771209,-3205.1638878502,3495.1582939211,3494.6385351142,3495.1130380193,3495.8134689729,-3205.1443010638,-3205.5691101023,-3205.1241116229,-3205.7834355501,-3205.5107830468,-3205.8680869767,3495.4576310874,3494.7939564085,3495.7141913126,-3205.6929347471,3495.3313270261,3495.7900681455,3494.9414725272,3495.2251074006,-3205.7606285407,3495.6767185851,-3205.4822111968,3495.418853116,3495.107639115,-3205.7681045703,-3205.3127972126,-3205.6379336657,3494.6345804079,-3205.1131391972,3495.0240388672,-3205.4747051648,3495.7224360276,3495.1341907205,3204.8450727366,-3205.4152981612,3494.7922794178,-3205.2004304136,-3205.4835821356,3495.4016903508,3495.1212201495,3495.7298307384,-3205.4825624433,-3205.5003024211,3495.571865882,-3205.1649692387,-3205.053497081,3495.0368125745,3494.8900965313,3494.8920371301,3495.3660158198,3204.8577039837,3495.6403283281,-3205.1708948567,3495.4793757364,3494.9993708007,-3205.3461259756,3495.7857101232,-3205.7681058794,-3205.2909754574,-3205.3953314972,3204.8216420786,3495.0646914227,3495.0947686069,-3205.2037083925,3495.2071811683,2914.3758950831,-3205.2153258261,-3205.6022100846,-3205.1210977331,-3205.2986379584,-3205.2056894606,-3205.5749145446,3204.8505408825,-3205.3480230931,-3205.4955681082,3495.1529773614,-3205.708691721,-3205.392822824,3495.0564852894,3495.7533094143,3494.9545012753,3204.7596524164,3204.8694245209,3495.3912944254,3495.8074202326,3495.4028072646,-3205.0235870458,3495.1012344329,3495.263807107,3495.1607776061,-3205.7513449928,3495.5684009143,-3205.6553108528,3495.6972887619,3495.2884331636,3494.775805084,-3205.6269833554,3495.0731674371,3495.2127858721,-3205.7633090767,3495.05750699,3495.0001720665,3204.8723971558,3204.8580241073,3495.6163182324,-3205.3134130701,3495.1814699595,3495.6617184938,3494.8732390978,-3205.2086945932,-3205.2836541435,3495.5088834642,3495.412090844,3495.5314607357,-3205.6257578567,3494.6485957918,3494.7305538297,-3205.0374943406,-3205.4056437937,3495.2220323163,-3205.2508008353,-3205.1915175141,3495.6497992518,-3205.6461762777,3495.5582732745,3494.8202172829,-3205.6656805493,3495.0992351428,-3205.0424806029,-3205.273737129,3494.9365273353,-3205.7591576017,3494.8716954194,3495.3342751309,-3205.4834481685,-3205.3295848704,-3205.2392655284,3495.0821016971,-3205.5018763209,3204.8029690758,3495.1432465666,3495.6844823942,3495.4241914256,-3205.3726471884,3495.0930483939,-3205.481176525,-3205.1531819072,-3205.314123825,-3205.2327551708,-3205.663492346,3495.5326032891,3495.3257057691,3494.9204971268,3495.1468708266,3494.8391243894,3495.5966851006,3495.6821675587,3204.9108485767,-3205.8683380111,-3205.1526606154,3495.1768099215,3495.3247997573,-3205.5229992818,3495.5530662516,3495.5777360138,3495.3218139871,-3205.0594304911,-3205.2209029364,3495.5886490241,3495.7111038972,3204.828789059,3495.7195943395,3495.7124117946,-3205.0379749635,3495.1186336562,-3205.6637161119,3495.0149074383,-3205.4986251652,-3205.1524420176,3495.6592956675,-3205.7353118171,3495.4758042792,-3205.7511960989,3494.9090372316,-3205.3336396305,3204.8406326444,3495.3869266739,3494.8974562455,3495.4579972942,-3205.4989308573,3495.2040174985,3495.3737401663,3495.5930061874,3494.8503583438,-3205.8283361359,-3205.3875231739,-3205.9119747432,3495.2220934857,3495.5969159799,3494.9248210887,3204.8503356799,3495.5127903746,3495.664969166,3495.3344519418,-3204.9944848564,-3205.1099086104,3495.5641533045,-3205.2749112044,-3205.0388259909,-3205.5986561019,-3205.2908823145,3495.551527097,3495.6034825716,3495.0357968217,3495.5301788024,3495.4589440736,3495.1557107841,-3205.5131349502,3204.8612216453,-3205.4774401877,3495.6418641487,-3205.6526472745,3494.8508618661,3495.2184066972,3495.4125139069,-3205.6602862825,-3205.2790766035,-3205.625194696,-3205.6417777838,3204.8229092757,-3205.677849358,3495.1523753328,-3205.8116652221,-3205.0772422356,-3205.366598458,3495.0036118552,-3205.4038562872,-3205.7396017233,-3205.2639922775,-3205.3366636791,-3205.2130351959,3494.9264518728,-3205.7182824904,-3205.6155875152,3495.6440175134,3495.5473435072,3495.3723873256,3204.7911414091,-3205.5722716189,3495.7791094631,-3205.6531830173,3495.4411748751,-3205.1324233185,3495.5557768832,-3205.7966165383,3495.2803297985,3495.5489076582,3204.8750753868,3495.4741243548,-3205.6670221911,3204.903745078,3495.7391411442,3204.9128711556,3494.8705183535,3494.5288276162,-3205.0045032435,3495.4794684314,3495.1882562888,3495.4681804586,3495.5380193652,-3205.3009114507,-3205.9051479518,3495.461249204,-3205.0501678743,3495.3987602495,3494.7657986675,-3205.5155963081,3495.2011016592,3495.2022342449,-3205.8752569217,-3205.4919924715,-3205.2527246383,3495.4124471582,3495.3912285245,3494.6972591765,-3205.3925619014,3495.6821800763,-3205.3057174549,3495.3014452253,3494.9270881317,3495.7847772716,-3205.9017014104,-3205.5019716633,3495.7816972643,3495.0298111334,-3205.4462446367,3495.097216075,-3205.1854738238,-3205.3820576208,-3205.2856974561,3494.8485016303,3495.7176298987,-3205.7650278327,3495.5128142871,-3205.275847738,3494.8225297089,-3205.2013811719,3495.3071007472,3495.5538096284,3495.4868093007,3495.7584407913,-3205.2134325438,3495.7059378087,3204.8265277847,-3205.4100541013,3495.4273961509,3495.5095516226,3495.8020774551,3495.7639303672,3495.8293407325,-3205.117434849,-3205.4380620674,3495.1002501053,3495.5759217233,3495.8332266146,-3205.6729320132,-3205.231626053,-3205.5496624401,3495.1008200741,3494.9979220633,-3205.5238320514,3494.7736228519,3494.994748165,3495.4396547318,-3205.5105865697,3204.8900859527,3495.7215804793,3495.2597616759,3495.3405984888,-3205.3671891629,-3205.5793849755,-3205.0603574493,3495.3648910888,3495.0332465237,3495.0503184572,2624.2041838873,3204.9100089067,-3204.9921861818,3495.5655675983,3495.7882025419,3495.3594422136,3495.5637089821,-3205.633805869,-3205.7082282097,-3205.6207131304,3494.9423287131,-3205.2987120572,-3205.5042118323,-3205.68644686,3495.5150826804,-3205.3187583916,3495.1493202686,-3205.0285391814,3495.5904055112,-3205.2900634437,3495.3145666379,3495.6722323893,-3205.2939674818,-3204.9993992767,3495.0200815626,3495.5354228811,3495.8097745127,3495.057855939,-3205.5247560124,-3205.4770279407,3495.1358662254,-3205.2172660278,3495.4821862837,3495.6516229373,-3205.0070906446,-3205.3054985807,-3205.5675463245,3495.0411168013,3495.6586508345,3495.0820078592,-3205.6363197499,3494.7432371824,3495.1132887691,-3205.1162392129,3494.8372172534,-3204.9978968566,-3205.153569054,3495.2965125866,3495.7552821643,3495.4193641368,-3205.2052387412,3495.7994491752,3495.1389125755,3494.8437352335,3494.909753983,3495.6667103954,3495.0671599178,-3205.5455919125,3495.3351263486,3495.4701959219,3494.8898967195,-3205.4871360972,-3205.6930990308,-3205.0324280619,-3205.5659532472,-3205.396657502,3495.4648954829,3495.472387783,3494.8627096454,3495.7797328821,-3205.0993511487,-3205.0527848869,-3205.0886949519,3495.8125730676,3495.4385067815,-3205.0608770068,-3205.7557127562,-3205.7983873886,3495.2957102992,3495.6434269845,3495.0579116014,-3205.3539056257,-3205.361727949,-3205.0376674068,3495.2320955512,-3205.458927798,3495.5500675088,-3205.3252403547,3495.351924632,3495.1074740356,-3205.8029339575,3495.476864943,-3205.5727640604,3494.7572271528,3494.8391391149,3494.8943235061,3495.321655094,-3205.2649493826,3494.771850148,3495.462002515,-3205.3867720136,-3205.2813209832,3495.0229046565,3494.904871015,3204.9073817764,3495.3028377012,3495.3359589247,-3205.2199980087,3495.6152698043,3495.7733479139,3494.958148895,-3205.6008331482,3204.8596572327,3495.7023118781,-3205.1268715561,3494.7923906333,-3205.3350796333,3495.7970626959,3494.8767453466,-3205.697289166,3495.7368652863,3494.8440166579,-3205.1879569822,3495.3208695999,3204.8988602658,-3205.1756927738,-3205.4930967372,-3205.0683502297,3495.4017118066,3494.9118254936,3495.4702487502,-3205.640074492,3495.0808359138,3494.7533950606,3495.6168197828,-3205.0482248115,3495.448142159,3495.6862688235,-3205.3889340065,3495.369697828,-3205.3718515831,-3205.5893220045,3495.716820296,3495.5900065742,3495.18746011,-3205.3892948043,3495.1434749555,3495.3069760128,3495.403720083,3495.7891136815,3495.0012939507,3495.0961263059,3495.6767973136,-3205.0398582069,-3205.5124101935,-3205.5028350007,-3205.3067938523,-2044.836487649,3494.955400426,3495.6420744161,3495.7719366797,3495.5187438192,3495.3899073664,-3205.0329233213,3495.1126357371,3495.5396119601,-3205.0639025406,3495.6163941135,3495.8206667456,3495.0912064656,-3205.0313237347,3495.8254885739,3495.7034624917,-3205.0282569105,-3205.1834543626,3495.161292045,-3205.2929119464,-3205.8357088517,3495.6842590196,3204.8793271996,3495.6203293519,-3205.4711068815,-3205.6030023583,3495.7159681176,-3205.0207812316,-3205.0625868728,-3205.3846629993,3495.4610220881,3494.6734993187,3495.4161693736,3494.9810648536,3494.9211404672,3495.4535488964,3494.942134133,-3205.6384927691,-3205.4724315557,3494.9933831879,-3205.2491668851,-3205.6123852494,-3205.2981828349,3495.2750386421,-3205.3598242903,3495.2711559118,3495.232001803,-3205.2647942591,-3205.3496275059,3495.4831570766,-3205.290204696,-3205.6796973718,3495.6256121234,-3205.0604655892,3495.1081775777,3495.751242047,-3205.2584162798,3494.9046720748,3494.7912450971,3494.9438906366,-3205.4576708519,-3205.2364976902,3495.3363694711,-3205.3774574025,-3205.5591305126,-3205.1496395474,3495.434293373,3495.1554557162,3495.6133630384,3494.9978806133,-3205.6367238931,-3205.1755286277,3495.5545138716,3495.2160416721,3495.5841691398,3495.7398322867,-3205.5618019347,-3205.3739330114,-3205.5224972903,3204.765031804,3495.1568698021,-3204.9770919572,-3205.6564371543,3495.2013005079,-3205.7849681617,3494.9035868331,-3205.4374597195,3494.9777039241,3495.1274715804,-3205.3049819943,-3205.0989885194,3495.4540086492,-3205.7411686767,3495.6187326583,-3205.3110974803,-3205.2682789624,3495.008027161,-3205.907693171,3495.3723808145,-3205.2169497299,-3205.3851754824,-3205.6617991427,3495.1112601237,-3205.412309918,3204.8511625413,3495.1835063407,-3205.0307611781,-3205.5047926764,3494.9945669832,3495.4178785195,3495.5347282325,-3205.0237193646,-3205.460479309,-3205.2224979969,-3205.0064706909,-3205.5517880342,3494.8217457961,3494.9580718008,-3205.6797232728,3495.5315725391,-3205.2564349003,-3205.0943220086,-3205.5351228958,-3205.0250423747,3494.8676575159,-3205.0901899606,3495.6444370125,3495.3445087623,-3205.5943866476,3495.0788190929,3495.3700228404,3494.8331090989,3494.7709196324,-3205.4339873768,3495.7758005675,3495.4349515362,-3205.3939279992,3495.6232312978,3495.2192449586,3495.1154943395,-3205.6015114562,3495.4962188712,-3205.4936963224,3494.9838822775,3495.1072108521,-3205.2360959422,3494.9006541124,-3205.6255529847,3495.0685316929,3494.9187236001,-3205.3498858348,3495.736940845,3495.2012370552,3495.3698104207,-3205.5402828721,-3205.8786852297,3495.7709757412,-3205.2984242604,3495.0804490082,3494.9841823338,-3205.4285895607,-3205.4652328902,-3205.4510512402,3495.5677113423,3494.911044465,3495.4954533293,3495.6709209604,-3205.197526201,-3205.4929111418,3495.1426387913,3494.7598560732,3495.655101036,3495.2219116178,3495.6976949378,-3205.821000191,-3204.9854450492,-3205.1115378587,-3205.6526808377,-3205.8640664149,3495.525743111,-3205.4860822853,-3205.4629555583,3204.8497828559,-3205.6642930203,-3205.406348682,3495.2501791336,3495.7792629887,-3205.7265170639,-3205.2677381498,3495.2733412351,3204.840340382,3204.7895535794,3204.7872455458,3495.4551548386,3495.7363112487,-3205.5481235036,-3205.3486735346,3495.21412415,3495.1221402685,-3205.6056056564,3495.6434720755,3495.8207019092,-3205.3377783642,3494.9319639173,3204.8899113182,3495.547350257,3494.9140867577,3495.4361337391,3495.511554373,3495.6986358317,-3205.4789130401,-3205.7944863701,3495.4428826989,3494.9918132049,3495.6131665088,-3205.6819699927,-3205.7031915475,3495.2813838211,-3205.6600735295,-3205.8424250879,-3205.1500266543,-3205.5355600112,-3205.5747538084,-3205.8474038565,-3205.7399914309,-3205.5047483221,3494.7736204242,3495.7124332477,-3205.7484172292,-3205.483887381,3494.7991569775,3495.6312769781,3495.6493799232,3495.0331789662,3495.6952496322,3495.3589604755,3494.7388412982,3495.7835568408,3494.9773220514,3494.8076959362,-3205.5105470193,3495.5037430303,3495.3455220859,-3204.8777463944,-3205.3046522423,-3205.4344534232,-3205.1506727235,3495.3001344393,3495.6442362496,3495.6607804097,3495.2695044033,3494.885549576,3495.0296491587,-3205.0868746058,3494.9691507843,3495.2224528464,-3205.4811196135,3495.2934725945,3495.6680568159,3495.5474941099,-3205.6404946742,3495.4395101537,3495.1679814425,-3205.5417760381,3204.8300797065,-3205.0637145553,-3205.4129237367,3495.234016571,-3205.2196447254,3495.7596200076,3495.1738155841,-0.8285947593,-3494.2686438154,989.1860606384,-1.0697144896,0.0543093532,-0.4981753834,-0.5215590867,-3495.7016035693,807.2165803542,0.8012244421,-3494.3431822133,-3495.2716513984,-3494.7153438717,2497.8017675647,-3494.9551249191,-3494.9399898703,-2817.1991136692,-1.0420579355,185.0901712826,-0.0380899102,-2.1413654081,1085.821289325,1277.723209695,2577.6330107855,184.5853398471,0.2823406944,668.9616817669,-3495.086902374,470.8393597096,-0.6091916204,-3494.8368330767,-3494.278062334,-3495.3820177632,0.7426157669,4.1265398886,-3495.017554436,3.2788627223,-3495.5887365018,-0.9048744578,988.4899958039,469.9541131551,-3494.1972535633,-3495.4929591755,-1.0742652811,-2.3364860908,0.5968338868,-170.9050731811,2420.5479595282,949.680319489,3202.797416305,-3495.0130530743,1072.6220908827,-3494.7167447339,-9.0290483367,-3494.1038472526,2195.9984114957,-0.5435238981,-2335.3658346286,-1.305861863,1590.8587456103,-3494.2884630703,-3495.4970111585,0.7463161065,0.0657647338,-0.3167893044,0.4167168316,2660.0552426556,164.3055098248,173.0302894628,1512.8633791319,1055.8457723758,5.3330594998,2946.7914828519,1824.6020631775,-3495.2827637003,0.3908038244,-3494.8115051921,-3494.901268334,1939.0945219495,184.8567119152,0.4924922941,-0.0363165747,-0.425028003,-0.501287825,0.9276270837,-3494.3037713626,670.7093407742,921.6642910963,-3494.3598470832,-3495.0025777803,0.0307872056,-0.1649609574,-1.0317880114,3307.8375801236,0.3246358633,172.5702968248,-0.2709533763,988.7878323546,209.9243344142,-3494.3649025887,-3495.538687707,2645.4914809672,-346.1986069353,-3494.3823780572,-3494.9749368085,-3493.9858610899,-0.4701785784,1.1342794222,79.945593169,0.3193674682,632.9957637847,-2336.7464998797,209.2043722399,-0.9476681535,-2751.0698057426,-3495.2010457856,372.7826162088,1501.7993263575,-0.6248234083,-3493.9021310951,-3494.1784393151,-3495.6199535379,1591.3818940515,0.149943945,-3495.7331825942,-3495.349034623,-3494.8817123874,1511.8609227796,-3494.2063090289,0.1689312433,3148.4391766542,-0.0846821506,-3494.3853314027,0.0548599495,-2.4934529385,-1.1268850765,-3494.8304000539,-0.0578271435,-3495.6254910819,-3494.8616992031,-3495.1124784045,-3494.181721067,2.6494540207,-3494.0994499541,0.2149204117,7.0092493297,0.0913692449,3.719063666,-3494.3721752847,-3494.6196212977,-3495.4206309847,-4.4787082062,1512.9261735683,-3494.7641940237,-3495.6227012054,2080.309204773,-3.0729903808,-3494.9113638857,-3495.6705880066,-0.3357804956,1291.8140975291,-3494.8084929549,1071.3984268599,-3493.8862370773,-0.93572855,0.8324216868,-3206.2625584575,1511.8415060346,-3494.9220373569,-3494.2495077772,-2914.3409613685,0.3139003858,-3494.3197249304,0.2367836239,910.5020046089,0.563581027,-3494.4409014423,-3494.9536669932,-3494.2815335163,305.1675053501,-0.5034158396,0.057647203,-0.6020165293,-3494.2835793198,-3495.2736783368,-3495.6418879909,1.6472068086,-0.6340057891,-1.0072234572,2577.7114781811,-3495.1247987007,-0.7691540874,1.0720742892,6.8714375335,-0.6285229645,-0.6864255568,1277.9357773607,1292.1426636844,2645.6124695512,-3495.121516064,0.1830217496,777.0167995904,-0.4029763207,949.7053649559,0.8653699723,-0.7141950151,-3495.0846767554,-0.9020653706,1278.6694549485,-3495.8009759292,-1.0900607979,0.7963617596,6.6322412432,-3494.1012958925,0.3264761762,470.9885597716,-0.2922669167,-0.7075195258,-3495.7410080973,-0.6411027076,-3494.7769159975,1293.3447701647,2560.2368089039,-3493.9885965895,-3494.8054602679,0.7215805135,1337.0549928961,293.8432961891,-3205.488339313,-3494.7924658004,-3494.2844744206,0.4141503171,-2625.4679509929,-1.5443815518,-3494.2498668806,-3494.0290833062,2962.350412374,2188.2189519761,-3495.4597503173,0.3766022087,1278.1136599078,-0.7818562372,-0.8742148556,0.4688906166,0.3619431652,-3495.3935072908,910.2659392574,-0.4296177156,-3494.7764374505,948.8262659096,-0.8841006961,-1.3113349109,-7.0608903274,-3495.8093854642,-3494.9625773663,0.0274443203,-3494.055699904,-0.3489616949,-0.8928080572,173.5952990541,2.4191229678,293.615427924,685.2828860141,-0.1368604226,0.5750466499,-0.3047312091,2944.0243747395,0.2685241205,-3494.3867493726,-3494.1515209567,-0.2924770125,0.0907440725,1278.1538793247,0.3565309259,-2914.1866333337,-3495.2892680164,-3494.0213075956,-2914.1183237003,-0.2800609533,-3495.1843790601,-3493.8632510595,1632.8183044076,0.4133410842,-3205.0375263636,811.3667349016,-3493.9929597832,2425.6618229536,2566.0942201272,-3495.0952930835,-0.395475849,0.3444508311,-0.8283192652,1278.7918818752,-3495.3484663671,1.2900262295,0.892409759,-0.6968019638,-3494.9956950515,1087.4423707729,470.0864721927,1774.289299202,172.7056238358,305.8499404201,-3495.7817926483,-3494.6514086377,-3495.6244453022,-3495.0844254364,-3494.8486329771,-2.5204931934,-3494.8588096125,0.525151629,0.0392254679,196.6942564017,-3494.6996545946,366.8224030769,1278.5560091548,0.5099526478,-3495.174832303,1422.5763620063,-3206.9153386277,3306.9853551681,1278.8164220728,-1.3890779963,2421.0082665477,-3495.76079297,-3495.1045357346,0.5520374137,-2.2526737017,-3494.346200043,0.1762482207,185.2708482916,-3494.2168692511,-3494.1338747875,-0.9795992271,989.1819310939,5.8696037075,1293.4558820846,-3494.5317145453,2188.5387573109,0.5104409942,-0.4650615207,-3495.5184280446,-3494.2685881977,2.2271399791,-3495.1499801243,2060.5449163748,-3495.421084917,-15.9240331166,-2919.7786375831,-1.0882897166,0.7938954074,1085.7184522764,1278.8829876215,-3494.4020089185,1511.2064369231,0.6792189993,-3494.3205090225,185.2321211996,0.6082974049,-3495.5508524837,-0.3292897045,-0.9779840224,-3495.6637039979,1292.5885573027,-3495.4301903221,0.4560034596,0.3224409291,-3495.0783906732,-0.046903747,0.295048506,1336.6157646985,1.7625854821,1277.9271307342,-3205.5519840571,-3494.7197604364,2560.2791590253,-3495.7935144883,-1.4408117005,-3495.6936820604,0.5321126117,1086.5058004878,1511.3889442428,2661.7363189579,0.6961415946,1338.1369685883,-3495.7401697226,6.8319833011,-3495.7975322385,-3494.7273023533,-3494.3364074745,2495.412502655,-2915.0372386528,-3493.8353799467,0.2995260567,0.3715613,293.0205569212,293.5409656282,-3495.1918522435,-3495.2314338042,-0.7848679931,949.0005951129,185.1902022586,3198.2587290556,-0.3022461358,292.7909676673,305.3545307883,0.6074836288,921.9627454511,-3494.7781761362,1062.0685519697,-3494.0190712541,684.7490503089,-3495.3204170145,-3495.5407330775,-3494.3984783903,-3495.4052422115,-3495.3345179058,-3493.8437705825,-0.8391649826,0.6683496274,-3493.9842949859,-3494.0098277253,581.4200955734,2545.9875066905,-0.0902797873,3197.0594475054,0.8310568174,-3494.9297501485,-3494.7475194098,-3493.9541481428,535.1742416897,-0.6547672453,-3494.4856692627,-3495.1603284316,-3494.6311222909,0.9458796957,2494.9938052778,-3495.2904018061,-3494.6062889557,-3495.291401317,-3207.714337586,-3495.4674231119,-3495.5200209013,-3495.5674318601,909.2212832901,-3494.2196331134,-3495.439394359,-3495.8038132437,-3494.8279297349,-0.2093889437,0.1033682014,-3495.3647814609,185.0027577553,1.0029521931,-3495.3400921824,0.3110384737,-0.9902870252,-3495.3743025011,-0.2266563785,0.5529177004,1072.7386701266,-146.4460187485,-3493.9228862408,-1.0718626407,293.9812876624,-2334.6754963631,-0.3391151895,-3495.7121056063,-3495.4831256758,908.9827525182,-3494.1921004744,-2915.9243462994,-3494.0178902774,-3494.7138864475,0.1421626388,0.7666717192,-0.6016622152,-0.7962775042,0.4478277039,2189.6180231414,-3495.3274793293,-0.7359547092,-0.026554722,0.5867913134,59.0370141087,949.0447582228,-3494.1177778118,-3494.3427422178,1054.614686048,-3494.1960209572,-3495.0715501098,0.7846621293,2421.3702254076,0.0763107817,-3495.633213596,1545.501250262,-3494.5545336486,-3494.2864261219,1983.4380846824,1.1538004535,-0.3045777147,-3494.0130569028,0.3862055237,-0.4710581331,1046.5042255095,-3493.8386677561,-0.8946632203,-3494.9578162671,-3493.8982757353,-3495.6906158152,0.1441634001,184.2576468841,-0.8732223965,1551.0886060472,469.9466371468,0.4215048539,-3495.4955694124,184.7602192405,-3495.4024608739,2024.2517533328,470.0453278573,-1.2018187018,-0.2892830249,209.9695213124,1337.143061678,-0.4086844986,-3494.1268372626,-3206.488991734,51.7737677529,1136.7103079656,921.9882240098,1336.5834017155,-3494.1703024221,-3495.487599042,-3493.907591212,-3495.3741468589,-3494.8998326324,-3494.1092498594,-3205.696050723,184.6054215854,948.0845042457,8.2319529445,668.9721896439,1627.7361101879,-3493.8638647209,-3494.2410612435,-2.5171382668,1511.7315441147,1512.5590948017,-1383.382415003,0.7282245589,-3494.7004367788,-0.4846976895,-3494.75939219,-3494.6912422608,-3493.9230575265,-2625.8032431446,470.2291308356,-2.8571540256,-3494.8680422216,-0.8493740773,1277.7129549444,-3495.4651157948,3395.4952179888,-3494.9196588857,-1.5633611507,0.4541983811,-884.0449516152,1046.2789239475,-3493.9434872326,-3493.913581498,-0.4222904125,-3494.1375342074,-3495.2110406337,-2334.3229765431,-3494.6910330754,-3495.7105831513,-3495.4814572099,670.0097096857,1.9319772492,-3495.6509331914,26.8572108684,0.7416904802,2445.2742189482,293.800457372,-0.6904383497,-2915.547933967,0.6068231782,469.4603419135,1292.1834505251,-3495.0082724851,-2334.2946125338,1337.5235306936,-14.8833739371,-2044.8149281101,-3494.9430549349,-3494.1738899423,-3495.21555567,-3495.2213049203,-3495.1194183036,-3494.2703379657,-3494.7907736346,1511.8277683949,1751.4343847671,-3493.9389939108,-3495.7259821423,-0.3149979379,-3495.6551372587,-0.0716520434,-1560.9044623698,-69.6810341103,-3494.1941714845,-2817.9724763159,-3494.5655237577,-0.6538805065,0.0066426465,-3493.9949205937,-3494.0547086331,1511.9001804834,1277.1155545211,2421.8165882035,0.6187877593,184.6780167944,0.9959430732,-0.5020322635,-3494.6499878235,-3.9857110059,0.6690832821,-3495.5076665627,-0.5888271388,0.318885033,-3494.4605457789,183.7511417042,-0.1115109861,1511.3042455198,-0.5022854075,1278.549868668,-0.4397936422,-3495.2710784722,0.1591194744,1673.5148570536,0.8923842882,-3495.0104884332,0.1003540427,2561.140348989,555.3336022869,368.7346402589,670.1444931212,5.5664401873,3294.6384536515,-0.6362006244,1402.2519482764,2695.4022867654,-0.2596175348,-0.5361724033,-3495.3707375191,-2.3259422765,-113.0896237688,-3494.9206165267,-3495.4911993339,-2624.2908160468,184.2564626111,1747.8108804031,4.6746285422,-3495.8214979116,-2336.7950886605,-3495.109596014,3.7486987215,50.9874565156,1048.0914588324,-2334.2152367501,-0.7913284718,0.1941592523,-1.0123083007,-3494.6741284646,948.4858256522,-3494.7504579963,-0.6345299364,-3495.5282640237,-3495.0275034441,-0.1795241616,-2919.7735864045,2577.4323773262,-1.6113115734,0.4349426951,-15.5857969995,1423.638175294,-2363.3027250816,0.023890908,807.3161047566,293.0167492133,0.317926676,1146.4644754798,2584.6608912201,1278.92314905,-3494.1492603127,318.8663006276,-3495.0127194899,-3494.1942186884,686.3763732158,-3493.8532235728,-3495.1787399146,-3495.4709269488,-3494.4620339872,1293.587389378,3154.8277800186,2299.2844471821,-3493.9862352719,1337.0578922641,1958.2108120422,-3494.8044538062,1512.2986565445,-3494.8786512455,-3205.3401386895,0.7878729664,0.2558510473,-3493.9601583054,-0.6161631108,-3494.3840010956,-0.5165585129,-0.7285380408,-0.6353879719,-0.4916739416,0.2191461071,-3495.3055441013,-3495.5750178777,1512.1633628496,-2624.2881223909,-3495.6593241343,0.3178841943,-3493.8409618094,0.853681429,-0.3454564758,2188.9429566912,-3494.6030257423,-3494.8904447232,-3495.6640418849,-0.9373674036,209.0224132299,-0.0317290579,-1.7353137628,3295.1457228901,-1.121019194,-0.9110036916,948.8080001689,208.8723127678,-0.0165254026,-1.3546195462,1277.7995437965,-3494.2317836386,-3495.2661104271,0.3786068222,1468.1054241743,-3495.1257841371,0.5948116243,-3494.1910256766,-3495.56362763,-3495.2346023863,0.3741106409,-3495.7383629379,-0.1383629128,-0.1890351725,-29.008832488,2420.6991136965,-3493.8369093354,-3495.158401733,-3.6606820002,921.145203781,-3494.3911291667,2561.5658407445,2645.5249538965,0.1969666952,-3494.5140930457,948.4013433045,-3494.2704781879,-3494.3004880828,184.4860611878,2095.0333907064,1277.6998128712,1046.3206895233,-3494.7471248473,-3493.9354607575,-0.6857166021,-3495.5481397382,3045.1937756612,-3494.4875172724,-3495.6143366493,-3495.8064975626,1047.5368257004,0.8257311109,-3495.1046356799,0.5193811014,0.8186933771,-3495.6633414512,-0.5063581996,-2915.3629915635,580.0585335119,-0.3677930762,-2.8702003136,106.4996409847,-3494.5932687068,22.0948121187,-3494.7050114357,-2.2134773866,-3495.708362481,2794.8898717183,0.00184641,-0.9894852677,-3494.1912657194,0.4262506784,1337.8404819077,184.2284741766,1047.0015729367,0.5519600857,185.0317262253,-3493.8892868992,-3494.6403770603,-0.3361463859,0.0265528913,0.343543516,-0.0975368938,-3495.7762417874,-3495.712063241,-2913.7723800049,-3494.0318355165,0.634989368,-3494.2463285494,-1.0678266876,0.6724528077,0.8002429407,-0.4184063782,-4.5233087568,-0.8834986444,-3495.2499107942,-3494.5114238674,1.1599754077,-3495.3795553055,-3494.771294928,-3495.8277931181,-0.7348231488,2946.1825577253,-2623.8128829785,-3495.4990779633,-3494.2748101829,-0.1428517426,-3494.7770903936,477.2957745245,-3495.1009057029,1278.2285702691,-3495.024325075,0.1150552725,-3494.0567034613,0.0514172017,963.766649209,173.0278882141,2103.9458009736,2946.1460213881,-3495.6117910165,-3494.973412775,-1.1490431752,1990.9661199383,-3494.8049018683,-3495.7949896896,185.2298194858,910.4800059649,0.8767204869,-0.5468589409,-3495.2225708132,-1.264022169,-3493.9828259681,293.8785502468,-0.8201919509,-0.0293193796,2896.3518395586,-3495.4417616191,2496.1468668868,0.8704320243,-3494.5622762694,-2631.4999257316,-0.5801109006,-269.3987863982,2247.0253028025,-0.8850095125,-3494.1950987531,807.7376812265,-3494.2164025865,-3493.8820410453,1336.891530413,2578.519199829,-3494.4550728984,305.8669254675,-3494.4797509968,-0.9918546234,0.7425690751,686.1508829984,-2624.1113473723,-3494.0039222535,-0.2910246784,-3495.1726224165,173.844827201,1072.7007943848,0.0271927189,-0.1025456277,948.4089910898,948.5236866008,1292.4788573881,-3495.7745050146,-3494.6770165822,-3495.1674660671,0.1911319233,1985.2846690055,0.1279357531,0.3765630617,-3494.3075416154,-3495.1811388537,-2916.4353599995,-3494.8578728804,-0.1750265534,470.6447959537,2578.2803172172,-3494.8564296974,686.1960280459,-3495.0810382202,-3495.4514060997,-3494.4919940246,1276.9984002504,-3493.8792344473,-3495.7527270731,-3494.9362393064,-3494.1305079955,0.0860735079,-3494.1622433138,-7.3878729532,580.9276190012,-3494.6763081775,-3495.1391441343,5.4217406677,-0.850688069,-3494.0136100454,-4.2055776052,-3495.5886292758,2796.3470928744,0.5963763708,1053.7259501318,183.9051983415,-3494.6905101555,685.7877777136,-0.0418532955,2578.2150634828,0.1655618108,-0.6082944148,-3495.5740719809,-3495.8027184697,-3494.9893830711,922.2338381254,-3495.6686396757,-3495.167096725,3494.9596390039,-3495.1943908061,948.9857562664,-3494.616925146,-0.7913741798,-3495.4230450153,304.2668458177,-0.7991439702,81.1529358744,-0.5431346285,0.2239372958,-0.8534953252,-3495.1138300664,0.317072087,-0.7875914457,808.9035866056,-2335.199125618,1423.1330115793,-3494.2971340853,3197.904473665,-0.4630137276,-11.5218528929,0.2835878618,1777.5974898525,-2915.8882057647,0.1528084207,-3495.1605260348,-2084.304063751,-3494.1537722219,111.3398874148,-3495.1783125115,684.6717395588,949.0520930808,1291.676192411,3198.5435259766,0.3320183604,-3205.8389446365,-3494.4881401262,-2335.2616082621,-3494.995274162,-3493.8795309658,-0.9578719674,-3494.3794045716,-3495.8337604365,-3495.2386169601,-3494.2726167026,2560.4858909602,-0.6752986213,2187.8639277818,2695.9167757329,1337.1921215417,0.5838937882,2425.3295847358,1338.1283995925,1054.8099298338,-3494.5238646678,949.1717776825,-205.7212183677,-3207.6529241517,-3494.6643458791,-0.498950186,0.2202711909,1054.4231960632,2421.3024185765,172.4882360387,-3495.1508770162,2996.5935905873,1.2817300008,1147.0973169517,-3494.133785094,5.8164273269,1468.0528023968,16.3039254926,937.6963341196,-1.7804235071,-3495.2755351787,0.0944238514,-3495.7368533475,-3205.69890085,-0.0096968299,-0.230044918,-0.4986770118,1337.1260082795,2094.1408731707,1291.6062019724,2836.3925743945,1292.4540736861,-0.0011385931,2273.8498312584,294.7109489936,-0.5032521776,0.7684863783,0.4110380779,-3493.8482056316,-3495.61847299,-3207.0071028237,3394.7413928143,1291.7139269436,3.3737838107,294.4642364009,-3495.6184103485,-3494.1988617354,98.6914019631,0.3391252407,0.2578815686,1055.1750183726,-4.4338078887,-3494.8065085763,0.2318652252,-3495.7925843234,-3207.3139230027,2094.3871873015,684.7474488662,21.5089169241,581.8694131719,2597.0493765003,-1.471113273,1628.6266176749,-3494.0236184114,-3494.1621200612,-3494.723914116,-3494.1279846116,-3495.5477399461,319.1276903413,-3494.5148422202,-3494.8290070777,-3494.6161050619,-0.0923633209,-3494.6851417429,-0.3576139769,184.3869120811,-3495.6546233743,3444.6210798446,-3493.8737913344,0.4727522885,0.6672048159,100.4103720344,1055.3423582892,-3494.6529168722,-2333.6104791015,-3215.3484897176,949.0012947829,-3494.7635181255,-0.5840712661,-3494.2419394658,-3495.2999879054,319.0021947218,-3495.8302299143,0.9942714016,0.5528854613,0.0809851907,-2916.2829745167,-0.1403941141,3495.2900981283,-1423.5262105656,0.273116915,2.8856635607,0.1062431106,0.7925152748,3495.4981648981,-808.8357416377,-0.2475346496,3494.6353890783,3494.5569153022,3495.2898799997,-2497.5500662921,3494.2901633636,3495.5829233527,2627.9825315989,-0.6888188371,-183.6151837277,-0.1347980328,1.5286209287,-1086.0947758524,-1278.6633747561,-2578.0953721807,-183.4818975647,-0.7094877104,-669.1158499042,3494.3126286549,-470.6606983418,0.7326574057,3495.7081643403,2914.8915504706,3494.7586866865,0.6616683791,-1.6538191556,3495.1667339359,-10.2897274189,3494.5682667681,0.0029099089,-1422.8648007383,-470.9410059593,3494.1136929863,3495.5693560396,0.3277362866,3.5551658294,0.8029933911,171.5046401445,-2421.0050879226,-1139.2019551962,-3202.784671984,3494.0951266338,-1071.9054099778,3494.9363671872,13.841417192,3495.6434802213,-2195.8627137666,0.961564215,2334.2796786195,0.4118193554,-1100.4216997135,3494.8158493373,3495.5843316564,0.1198802731,0.853031657,0.983811415,-0.5298362466,-2660.1860224178,-195.5722469312,-173.5474160631,-1512.7319769021,-1054.5045738395,-5.2531574992,-2947.6252615005,-1824.3146309196,3495.5036258482,0.3566259265,3494.1619310228,3495.8034990477,-1938.7410521294,-184.6459264993,0.6601834478,0.0703461442,-0.2783028417,0.2906542842,-0.9871295707,3494.8896761628,-669.3432112666,-1105.0540996874,3495.4828804363,3494.0611093982,1.0201128916,0.9104565719,0.5675167641,-3306.5770450635,-0.0611731851,-173.370435781,1.0716463974,-1423.7139547773,-209.9035273071,3494.0490698748,3494.0273029464,-2645.1959194219,71.6291809506,3494.5602594665,3494.8037955986,3493.8737191962,1.0102424624
   -0.0411328285,-27.2871602232,0.9588801668,-632.9693989227,2926.7617398773,-208.9303363002,0.5469630749,2624.5529361724,3495.4572965226,-1072.005497002,-1502.2111159952,0.8733234218,3494.9170664287,3494.1274212436,3494.2239602408,-1541.9476330912,0.2607533394,3495.433973119,3493.8486751131,3495.6711140241,-1512.5958578327,3495.0512607899,-0.5538049401,-3148.2781350273,-0.1691024106,3495.4382858472,-0.8262313854,0.2565171621,0.3087802431,3494.1038678346,0.1160317155,3494.6572731312,3495.5086206147,3493.9056536401,3494.415211169,-1.0997828296,3495.4439109673,0.056483057,5.8349984462,0.2606440089,-4.2457659449,3495.782933709,3494.9783035191,3495.6437889152,0.8682481821,-1512.3559321044,3495.1316277384,3494.1441333155,-1691.0124760116,0.0689605451,3495.1581399057,3494.2070576734,0.0773729311,-1293.1711183235,3495.2713977966,-1072.3326846406,3494.3890687068,-0.3092200039,-0.8324348885,3206.4660874659,-1511.1606714461,3494.0061028976,3493.8942323691,3495.3898888942,0.5495958881,3494.7005666169,0.4777926039,-908.8162674042,0.4836159006,3495.6084154252,3495.0642689477,3494.6947435508,-304.4811400444,1.0006639116,-0.7932492259,1.0986146402,3495.2165720258,3494.8275248554,3495.7271471159,-1.4702219623,0.3225450816,-0.3922418301,-2577.4156101567,3494.3438296458,0.5013033445,-0.9431508107,-6.5360552388,-0.7408694981,-0.2510524527,-1277.3836168542,-1293.4287959353,-2646.6249514003,3494.9217482654,0.7580111805,-776.4162987901,-0.3537243843,-1139.2611980471,0.4428056079,-0.1384272,3495.2172640779,-0.3297362181,-1277.3877577192,3495.6586917708,-0.8996156651,-0.8381079101,-5.594636005,3493.967337698,-0.191883009,-470.4256186177,0.9421590896,0.7001223913,3494.0045690418,0.7239042486,3495.5567953825,-1292.9714736405,-2561.2369587131,3495.3343083585,3494.3497673362,-0.665275158,-1336.7734975617,-293.9109367514,3206.5426273739,3494.8641887712,3495.7605367996,0.9547993159,3205.8027844347,2.2541081409,3493.903153482,3495.7439326773,-2961.1359699179,-2189.4248153398,3494.1429507114,0.1750705466,-1278.5033142409,-0.8052013702,-0.3152508899,0.7813949011,0.4396973064,3494.0568159277,-910.2277178586,-0.3425623452,3495.7036711473,-1139.0681150017,-0.5180012899,0.6361558829,641.600072568,3494.5432004791,3494.7739166101,-0.3427183191,3494.0713928484,-0.0363313424,0.0470391442,-172.7689178837,-2.84953997,-294.6717809208,-686.2275154525,0.8465851522,-0.8571836059,0.0862872388,-2943.7361790322,0.3718421517,3494.3299362522,3495.4434957838,-0.2715914353,-0.5754212423,-1276.982278487,0.7403057992,2047.0965252697,3494.770352385,3495.6806829685,2747.0823271362,0.8951513846,3494.6294402591,3493.9700764303,-2093.5129109932,0.1245756779,2623.5144777954,-812.8215310285,3494.4048984197,-2425.0505239542,-2615.168394807,3494.9198179201,1.0299011752,0.4571157983,0.5052456534,-1277.9042744014,3494.9964688735,-1.070010489,0.1971295104,1.0655011558,3495.6417155687,-1086.106741171,-469.4986071431,-2188.2091599394,-173.7867045138,-305.6011936198,3494.238360604,3494.063168953,3494.6426038731,3494.8151196325,3494.3574683639,0.1342836213,3495.618742864,0.8270168051,-2.2613511096,-196.8302849297,3494.0996911992,-366.8706111813,-1277.390234533,0.4386790126,3494.2701909384,-1422.0957061613,2629.261377471,-3308.1112585438,-1277.9192096578,1.1287343982,-2420.9727016237,3495.3525791541,3494.702148025,0.9837800771,0.6932663157,3493.9323662527,-0.5478603525,-184.7453429248,3495.084827003,3494.9627552056,-0.0320193914,-1423.5330316024,-5.4020522533,-1292.9193519491,3204.6916505496,-2188.0274140354,0.3332980282,0.4479068883,3494.5419566111,3494.3662406091,-0.8619826441,3494.1493065346,-2061.1621303416,3495.3653769746,9.2517166978,2623.801592226,1.0238064433,-0.4670433895,-1087.0282807407,-1278.2990075701,3495.3331663556,-1512.3413699733,-0.2093165666,3495.632095251,-184.5394623793,-13.2439603168,3495.1774100547,0.750016546,-0.4222993489,3495.1823755585,-1292.5908474884,3493.8635741933,-0.2051484398,-0.8053478642,3495.8068837555,0.1794260678,0.9480815584,-1337.1744576101,-1.3435381898,-1278.0362362002,2914.9531197061,3494.0983899581,-2560.4840856354,3495.0267136599,-0.07778241,3494.1473996277,-0.4507947843,-1087.4599453927,-1511.2386553777,-2962.0106812891,0.0058834244,-1336.6580953246,3495.1639490475,-6.8251593749,3494.9243873247,3495.6012923802,3206.1876119502,-2496.3395214657,2919.9958738488,3494.4261381338,-0.3062202071,0.3506512416,-294.7324208757,-293.1603608684,3494.901348762,3494.4786097892,-0.3928285544,-1139.402528481,-184.5972443851,-3198.2502120279,1.3395790724,-294.5853814794,-305.8686243928,-0.4934350052,-1105.2496884648,3495.748376955,-169.2522818639,3495.0078087647,-686.2043776433,3494.4201549068,3494.6508882651,3495.3433808862,3494.8473006693,3494.7871640861,3494.3460569662,-0.6493088231,1.0565246439,3495.2243420405,3493.9119621081,-581.5102511304,-2546.0238726413,0.7331404142,-3197.8713116587,0.3484456064,3494.2591802331,3495.2448516818,3495.1130617403,-754.7589665538,-0.0429445494,3328.8714293172,3494.6773936692,3495.1692616871,-0.4349950775,-2495.5709988112,3494.2570032851,3495.8257408976,2914.9609784678,3207.8864413922,3494.0158037513,3494.5169969233,3494.6300659417,-908.9019732151,3494.2626683133,3495.4571012006,3494.520032823,3495.8289859466,0.0389883192,0.8742437423,3495.0368206452,-183.421313609,-0.0927653173,3493.8443752016,0.4961654458,0.348342625,3493.9608805118,-0.9391197132,0.6653892558,-1071.4703897509,123.5282765456,3495.6026920569,0.6777446481,-293.6947335497,2914.4408537055,-1.1088645813,3494.6101477247,3495.3035541359,-908.7683553824,3494.2530214965,2916.3187414457,3494.5662660588,3495.5209622582,0.7627542213,0.9415083093,0.4626981267,-0.3769026362,0.3754434317,-2189.4350536389,3495.7721609884,0.6839427351,-0.1052782426,0.8410523101,-60.8719103538,-1138.1162738647,3494.3944986513,3493.8411318583,-1054.373968488,3495.8034521793,3495.4316232188,-0.1657906581,-2421.2910727593,1.0244173357,3495.4187378595,-1546.1476511889,3495.5483686875,3494.3135443515,-1985.151340236,-0.4628990891,-0.6583278615,3494.3305546931,0.3820476963,1.0264810927,-1046.6533236577,3494.4295815483,-0.3028289938,3493.8606429023,3494.7484450149,3494.4583447769,-0.1687772444,-183.8607031407,0.5334706148,-1551.0962382002,-471.2096630036,0.5033168493,3494.0562318061,-184.3153768843,3494.5944629979,-2022.3442646518,-469.5129154934,1.7652671083,0.289316724,-209.7082602435,-1337.427135561,-0.5278692209,3495.7192608634,3207.001921864,-82.5091954467,-1284.5763546606,-1106.2992367907,-1338.1890211787,3494.96568199,3494.3178541224,3494.3648294456,3495.2911585854,3495.3384063387,3495.2176247517,2917.8557968413,-183.5864897988,-1138.0921296585,-66.249866564,-669.1220437189,-1627.35852991,3494.6530657675,3495.0101838318,0.9082267496,-741.8287174987,-1511.6049147929,1036.118913479,0.3230201845,3494.639224965,-0.1605759247,3494.4898264163,3495.0028976585,3495.1686366527,2334.5086388208,-470.1766433424,2.3952762192,3494.4844107633,-0.6510270551,-1278.3885561564,3495.2419084479,-3394.3481619713,3495.0638000494,6.6131231128,-0.6710969026,2335.1207871984,-1046.7739021,3495.2505589931,3495.4900432573,0.3004403715,3494.2407489782,3494.8915030633,2915.6619515311,3494.3111017629,3494.6381911679,3495.1021681885,-670.47246815,-0.9214611417,3494.7115278194,-8.7662721468,-0.6075960872,-2445.3350731429,-293.5105511292,0.6454362038,3495.6183500375,-0.2542280278,-470.2727167342,-1293.1929514106,3493.9122424008,2045.9601930452,-1337.6604808842,3.462803821,3205.9027457144,3495.6854708176,3494.5530503767,3495.7106742362,3210.3947697527,3494.0971619983,3206.331576702,3494.3630470226,-1512.5124498849,-1751.3911597834,3494.4670759022,3494.126329946,-0.1781653607,2044.9089147282,0.6500444667,2019.8460183488,8.7708805787,3494.707990658,2927.0015619763,3494.8422329241,1.0695997802,0.6857322881,3493.9037090497,3494.4028315062,-1511.1553198329,-1278.3060465708,-2420.6470732631,0.7786332544,-184.8268250756,0.625790587,-0.4841814677,3494.3995847097,1.520850143,-1.449495656,3494.0851116762,0.5083017808,0.3764670016,3495.798401499,-184.951714371,-0.478922249,-1512.7491846854,0.8026215282,-1278.7047551551,0.4223393113,3494.5846060137,0.4591390974,-1674.6724755021,-0.2549643924,3495.260805205,-0.0493345789,-2560.3103708344,-556.003781236,-55.586779524,-668.9412069452,-6.4055756664,-3295.284988373,-0.4965132359,-1521.3347499161,-2695.5015715305,-0.1880077947,-0.1912443825,3495.4412243925,0.4753084968,926.7219360375,3494.9213007238,3494.6999621814,2449.5519757092,-184.6905265693,-1747.9043774991,-3.8233922385,3494.9640275123,1845.5845024007,3494.9278004524,-3.8650637059,-209.8790925939,-1047.2866466256,1176.5031702339,0.5010682985,-0.4370973687,-0.6520555973,3495.078627514,-1138.953923175,3494.5115557226,0.5588352683,3494.8407370663,3494.1524820134,-0.1843051004,2626.2132229688,-2578.7740375777,-1.151113169,0.6591270848,4.2598988286,-1901.4568529687,3494.5042527216,0.8125811284,-808.7236725,-293.3075410322,-1.6469838753,-1147.1390958701,-2285.4806789301,-1278.9325905653,3495.012728816,-319.3658573759,3494.0184922835,3494.4490237251,-685.2017221926,3495.3508354497,3495.4475330377,3494.6685487607,3495.1560519223,-1293.1109064518,-3154.6855671171,-2299.3803185274,3495.2995213803,-1337.7173355653,-1959.536980233,3494.3304738844,-1512.8687889269,3494.8441573593,3214.8993107708,1.0562038285,0.5276480348,3495.1263720803,1.087332974,3494.3186095943,0.6113254945,0.2746889162,0.0929565125,0.2070572113,-0.1398161537,3495.1005998027,3494.1412400084,-1511.4312857571,2916.3372191372,3495.2824258296,0.322522086,3494.506476179,0.1328307767,0.9754898081,-2188.4118093382,3494.7499331513,3495.0324760889,3495.5651010825,-1.4188804659,-208.7675571276,-0.7772553055,-0.4855361688,-3294.7409342557,0.3203444949,0.487630566,-1138.6371584245,-209.2156335124,0.9881051665,0.5520528012,-1278.5781065557,3494.2138132257,3494.3045434009,1.041476054,-1468.0508504464,3494.7139736448,-0.8953801404,3495.5849159894,3494.8694006076,3495.7685226278,0.2257945337,3494.9027165348,0.153171937,0.0745501198,340.7305757151,-2420.935723569,3493.8855803689,3494.7220870634,1.9614839784,-1106.5060084952,3495.4913402172,-2561.598183026,-2646.8268116907,0.1108604761,3494.1624384709,-1137.86404009,3494.7819205962,3495.1417330116,-183.8215829349,-2094.1248462383,-1278.2933706362,-1046.7488586118,3493.950978452,3494.7029820359,-0.2645158837,3494.265292029,-3044.9480613696,3495.0578414566,3494.9325746014,3495.4773457114,-1048.1520318989,-1.6981254399,3494.4632269031,-0.5812720512,-0.5532684652,3494.7385501175,0.3528005436,3205.2554822278,-580.9846997142,0.545242503,7.4445524941,-80.0384970396,3495.3676987003,-22.3684252303,3495.2644423799,0.2788541244,3205.1719541664,-2794.1612583861,0.7055438263,0.7141893094,3495.8054615672,-0.3396555422,-1337.4748386462,-183.8306244699,-1047.074245677,0.440104786,-184.4580313523,3495.781283228,3494.8376560088,0.5807890753,0.0577740579,0.9366273926,-0.1020117976,3494.6224849311,3495.5665840296,1779.2762426499,3494.6452229182,-0.7930577037,3494.0180743733,-0.7516439799,0.8481966059,-0.3367483454,-0.0263121335,3.7925825399,1.0021218632,3495.0313364268,3494.291213992,0.1785636675,3494.497968213,3495.272535417,3493.9148135566,0.3317631801,-2945.0038132453,3213.0213646325,3494.2614881107,3494.5050190898,0.3611900739,3494.7160971473,-478.0112562771,3494.0241387358,-1277.8410188611,3495.3206555563,0.6366177513,3495.2336729607,-0.3957360492,-963.8421592027,-172.2088366038,-1775.1868871308,-2946.6748574589,3495.5064431564,3494.912534301,-0.6851245315,-1989.9892336418,3495.6087118156,3494.1604207844,-185.2460941443,-910.5286440982,0.6267859948,0.0662900955,3494.8677261072,1.029267665,3207.1555728795,-293.051035374,-0.077374656,-0.3782464561,-2895.1881340862,3494.1498829078,-2494.8742822478,-0.3949016372,3494.5760860351,2623.4998116512,-0.3424007496,49.4278234396,-2246.7684743052,0.6426753752,3495.2414439921,-808.0174889673,3495.0728463561,3495.7018351058,-556.572343348,-2577.9547102226,3494.2421099244,-304.3497901843,3493.8680934104,-0.2558861302,-0.1853704551,-684.6523436156,2045.2992300465,3494.6234324996,-0.0534409055,3494.1853514531,-173.2122658407,-1071.369097125,-0.8250944614,2.7856168245,-1138.1730791828,-1139.4066938985,-1291.6869251284,3494.4023449909,3494.7625872678,3495.5935570588,0.1387523624,-2422.3747901159,-0.3879311432,-0.8311359195,3494.1236156916,3494.8689426527,2915.0311704583,3494.5451334148,0.8614284322,-469.5156431087,-2579.2363344658,3495.77031637,-684.5847434199,3495.2463315538,3494.9066972562,3494.6240121834,-1277.6012633298,3495.0974020865,3494.7907435187,3495.1303100677,3495.4437888124,0.4862834152,3494.5888670263,1.5244652009,-581.737528609,3494.3937444673,3495.6019915266,-5.587747405,-0.4026436625,3495.3676246588,2.0284114013,3495.0599042099,-2796.0348419566,0.1487243524,-1053.7867894531,-184.0059362329,3495.0506570984,-685.5989267599,-0.6751827577,-2577.4848805422,0.900793498,-0.3831551966,3494.6561483793,3495.2218707441,3495.1065142649,-1105.6641216877,3495.0584380385,3495.0975482964,-3208.644018008,3495.73518411,-1138.3726976534,3495.2212272798,1.0694737509,3494.5868653749,-304.6046307529,-0.2508863137,-34.6447725476,-0.4957518905,0.6328399841,1.5132539828,3495.689480013,-0.2599202539,-0.0467407815,-807.207403919,2448.2359725161,-1423.6823825324,3495.2937717107,-3198.5898523685,0.7947853983,3.3188389154,-0.4803926689,-2098.462326184,3495.2989588897,0.5593682909,3495.5153359153,945.3112239788,3495.6591212513,-110.8948538881,3494.9087739847,-686.4338732441,-1137.6176995817,-1292.7074648927,-3197.0141156281,0.3070492714,2625.3215606096,3494.9276047089,2749.7189359974,3494.3186329866,3494.0981577915,-0.8885377843,3495.575833937,3493.9797518198,3494.0090202889,3494.8776261218,-2561.1405209886,-0.9543347007,-2187.7475788466,-2696.5909824018,-1338.071496978,-0.3438137654,-2424.101037514,-1338.2733032883,-1054.7668433775,3494.4065521872,-1138.7036281115,102.8201144338,3206.4493220844,3495.7404340703,1.6481418825,-0.3145200443,-1054.449231047,-2421.2329668204,-173.6648360875,3494.6142411671,-2997.7337932319,0.1063002483,-1145.3375336299,3494.4676401394,-7.1181763759,-1469.5912725009,-15.6138088575,-937.4275792769,1.2058477941,3495.6365508452,-0.043832043,3494.6665743484,2750.9687832971,-0.6234106809,-0.3533734366,0.6585693969,-1337.9715025973,-2093.8410163084,-1292.0447929676,-2945.3078098742,-1293.1986669345,-0.0539373658,-1779.4086706149,-294.2534407173,-0.0307033158,-0.7079358635,2.0809274001,3495.6085358278,3494.8664478586,3204.8954228756,-3394.9933192104,-1291.8169666094,-21.5520931443,-293.6728521921,3495.0863592907,3494.2426682732,-97.8130456079,-0.1633403904,-0.2861898285,-1054.7257334001,-0.5111176023,3493.9525033846,-0.5173124354,3495.6513248657,3494.9567088792,-2094.1551468589,-286.2338619172,-22.4132705354,-581.0255988359,-2596.2186010199,0.261273857,-1629.1862298069,3495.4038023517,3494.9277195329,3495.2089231618,3494.1134464945,3495.6157688191,-318.0320578506,3494.4191662258,3495.7952382965,3494.8979414567,0.5334643614,3495.6875094122,-1.0007220345,-184.9003256526,3494.1029337201,-3445.1189003673,3495.2626015402,0.2370760249,-0.6753488443,-15.8548595535,-1054.1138061716,3494.5787712143,2623.918788075,2917.7852343584,-1139.4236531635,3495.1138566772,-0.6856391127,3494.2084542004,2623.6327986389,-319.1497039382,3495.2507605755,-1.7009239099,0.6843472746,-0.7327527615,2916.1588887289,0.5306886883,3493.9092926348,-1423.5556550886,0.2891359068,-0.4202863738,0.6203643521,-0.0978179793,3495.0184242658,-807.3033703094,0.3383605539,3494.1621109835,3494.6474568502,3494.7662960013,-2498.9274650397,3495.5690505765,3494.7949003493,2926.0346002139,0.6027564818,-184.8987804627,0.5050164506,1.776626608,-1086.1434256897,-1278.5855631318,-2579.0448904792,-184.5725434665,-0.2812718289,-670.6494715468,3493.9837125574,-470.2437975276,-0.8511755049,3495.1970539422,3494.1428133545,3494.1864925321,0.2447992027,-15.8161188323,3495.7914545781,-10.9073542269,3495.2276817573,0.1605141579,-1423.4040152384,-470.2434380946,3494.1589914964,3495.0416660956,1.2985209691,-0.2444863764,0.4004348048,171.4950433286,-2420.4818456262,-949.3136939237,-3203.4620281727,3494.4703163125,-1073.0234635016,3495.1003203802,159.9702707047,3494.2033974276,-2195.5102708663,1.0884962603,115.5853376705,3.8193682326,-2504.3241656881,3495.2250852101,3495.1311547591,0.0102037206,1.0605964964,0.1562984123,1.0930058721,-2660.6102340253,-143.3424629941,-173.6723771829,-1512.3622187954,-1055.6832347683,-16.6950518109,-2946.5151615041,-1824.6599995235,3495.8228685294,0.9095754386,3494.7964609103,3493.9003406059,-1938.5388723234,-184.3367404572,0.4472461313,0.5083447049,-0.5806491963,0.9804882959,-1.5117215743,3494.0924215889,-668.9224667702,-920.4859249531,3494.9459461059,3493.9238652329,-0.3081399821,-0.4684756084,-0.6970066722,-3307.1919720451,0.3492302958,-172.5137003231,-0.3727639243,-1422.4114504104,-210.4844771641,3494.8084589305,3495.4819941867,-2645.498079667,215.0668931847,3494.0711514769,3494.2348689833,3494.3973998645,-0.7193928706,-2.9422040092,-27.4868066179,0.2369568372,-631.7337061629,2045.9448920428,-210.5404056976,0.5901876036,1754.6119040976,3494.2526463076,-372.382253087,-1503.0746911694,0.5934051698,3494.1585094603,3495.3852178903,3493.9396948078,-1541.1511531159,0.1854404547,3493.9749773256,3493.9735503895,3495.5954101878,-1511.7152084464,3494.6716733055,-0.1008834376,-3148.1348034034,-0.6927577706,3494.7901845576,0.6974990746,3.7351002731,25.241118493,3494.025580934,0.0878128852,3493.9322621935,3494.6364736288,3495.5584793192,3495.5419891445,-4.0746087879,3495.4016768186,0.4315986853,13.8879065776,0.2605629818,-10.1697541239,3495.6531120098,3495.5746300839,3493.8653761424,1.0617551986,-1511.6825905334,3495.060567208,3494.8907225905,-2127.7092635107,4.321465907,3494.7199264216,3494.1556427347,0.4316417112,-1293.4402482022,3494.9594245136,-1071.5574357136,3495.0156476619,-0.8578174435,0.5301286499,3206.1569303316,-1512.6515973323,3494.0196451458,3209.5653463293,3495.8326220338,-0.1953394495,3494.9301030265,0.0584680663,-910.1252934689,-0.4030835986,3494.0746414311,3494.4892126992,3494.3101034347,-304.6452142203,-0.3788125192,-0.0317719246,0.7024738512,3494.7158124476,3495.4841542361,3494.4143005885,-13.004204582,1.077972333,-0.415567263,-2577.3936708284,3495.6686035046,0.5939416816,-2.4523427094,-10.2072101034,0.7386373449,-0.5408414626,-1276.9992723695,-1292.1211568167,-2645.7420855758,3494.25437503,-0.5848886682,-74.7085748581,-0.3813083519,-949.5876133208,0.3115130802,0.3397851353,3495.227915572,0.7770781183,-1277.9401557352,3494.8920832165,0.9479832042,0.1943587655,-6.5484154829,3494.2846572807,0.2179237512,-470.9323555485,0.3526440177,0.2724414961,3495.6564589413,-0.5492029959,3495.0914139111,-1293.1508298159,-2560.4257170215,3494.8077218532,3494.3883839918,-0.0387794928,-1337.8124615747,-294.4139089239,2915.2276674709,3494.067757815,3494.6842158232,0.7430181139,2922.4654268951,1.52311072,3495.342135381,3495.6287547835,-2961.7485079085,-2187.9821437053,3494.8782376028,-1.1099106822,-1277.1457611092,-0.1234098547,0.960905626,0.2401425366,-0.7778796246,3494.9859490335,-908.7964879903,0.3865728187,3493.9441646398,-948.0923794584,0.5489188752,-0.4271552639,214.7606154703,3495.338202032,3495.4154043127,-0.421948,3493.8366792336,-0.5594507643,0.7570765239,-173.5560812161,-0.6457819641,-292.7874112038,-685.4157198842,0.7769258568,0.5973424228,0.3513756908,-2944.0702469141,-0.0252379964,3494.570984213,3494.5019953674,-0.1995671583,-0.7708320373,-1278.1999494448,0.6298203281,2336.7206150151,3494.5570625303,3493.9630001156,2322.9563826721,0.2834686983,3495.1445775065,3493.9820463201,-1786.2051921425,-0.2667035174,1752.5972357236,-812.1855819338,3494.3225374109,-2425.7305487197,-2665.0350199075,3494.4026798077,0.3274830755,1.1913876732,0.324269038,-1278.6891551558,3495.4646511584,-0.3589174872,0.2219068583,0.3691726679,3495.289112124,-1086.0796045491,-471.0974898736,-2188.1603226333,-172.2020147276,-304.7897192248,3494.7992431492,3494.0603779939,3495.4996712708,3495.7130601783,3495.4798731893,3.0968348237,3494.0612160589,-0.1108565894,-0.6230736774,-194.9072518093,3495.7797854627,-366.325108604,-1277.4432850736,-0.5916639262,3495.5271194802,-1422.7823703743,2919.4434918445,-3307.4871034033,-1277.0301604974,8.8470098546,-2420.802958643,3494.3982917081,3494.1038031587,-0.2960035031,25.0610891492,3494.3882159719,0.2937962149,-184.0532174267,3495.635602303,3494.9652010833,0.9609553014,-1422.9117039753,-6.0571706892,-1292.1401184213,2917.3721726057,-2188.4018152499,-0.3265900841,-0.8153977288,3495.2384842742,3494.3658772576,-1.5038274201,3494.1843511484,-2059.6229030876,3495.5477784486,3.5120934298,3204.5278550128,0.9838871114,-0.8327730554,-1086.6976652317,-1278.0458307277,3495.5968315021,-1511.2974825761,-0.5785707531,3495.2012699905,-184.0470491359,-6.7658316179,3495.7670499625,0.8808113315,0.3661984454,3494.8587110662,-1293.1743991567,3494.8238583123,0.6877224158,0.216941714,3494.2747632711,-0.3341518315,-0.3835373024,-1337.8811784254,-1.4050786019,-1277.8760986905,2625.1882525632,3494.9027256065,-2561.0037832508,3493.9038714913,-0.5036973288,3494.4304757719,0.4658044421,-1086.9590230252,-1511.8004578896,-2661.057980332,-0.9034498033,-1337.0851779608,3494.4020097845,-5.6628857071,3494.4305743375,3495.2200505824,3494.5295362766,-2495.7746388103,3495.8264744758,3494.5514861682,0.9260113214,-0.5314656814,-294.6685186283,-293.7342520315,3495.6889048591,3494.0630837343,0.8915144397,-949.9188297234,-184.9893063049,-3198.1675293502,-0.0963078877,-293.0616014717,-304.5714597268,-0.2811656496,-920.5072018284,3495.6052255401,-1241.7136734903,3495.3649713287,-685.6349592111,3494.001303113,3495.0799238691,3494.4392299462,3494.3581134584,3495.3584152903,3495.0346436263,0.1100362839,0.6720222907,3494.1723289859,3495.6547893016,-580.3832926073,-2544.443154452,0.9192532258,-3198.5988377372,-0.615102776,3495.0352161703,3494.5904640497,3495.3462782318,-534.7675012302,0.5753451823,3206.4753121355,3495.5458434178,3494.6641154438,-0.9278274949,-2496.6102220917,3494.548911663,3494.0073257291,2915.213796084,3494.5051791179,3494.769805093,3495.1975486611,3494.4959767272,-909.2941855366,3494.6123576756,3494.9366469615,3495.0442193908,3494.7114821471,0.4418119284,0.4811573484,3494.7216864412,-184.8152286004,-1.0952999287,3494.8437345015,-0.3100128585,0.7933883614,3493.9809323091,-0.46502859,0.4870659564,-1072.1474175975,37.8102213619,3495.307508153,-0.2709534322,-294.6003322797,2749.8818757287,0.3169666901,3494.9152165687,3495.5376211035,-909.8795790493,3495.2227728455,2921.5229867991,2625.9136145245,3494.2065779733,0.5935474415,-0.5952645846,0.7668454661,0.4387791705,0.6654229648,-2187.7562992779,3494.9209567598,-0.5495172905,-0.7894220577,0.3395561385,-59.0247851308,-948.9360483327,3494.4692135683,3495.4811915891,-1054.2012898237,3495.2417141895,3495.6578016904,0.2545496309,-2420.9910996587,0.5607976266,3494.1894623691,-1545.7342967109,3495.0812788128,3494.4419330823,-1984.3084961358,-0.9896960092,-0.1583278061,3495.6815060398,0.0165672026,1.0482443308,-1046.4795862322,3493.9550547162,0.7926828267,3495.0758157375,3494.7374995435,3494.7280991929,-0.074689146,-185.2009919257,0.3577569,-1549.619788929,-469.7714587845,1.4743088799,3495.0405029215,-184.2853217864,3495.539071246,-2023.2024752656,-470.8396269111,73.9913130479,0.4638560989,-208.9629557133,-1336.5373811302,0.2901706707,3494.42537166,3206.2387616907,-145.6556475085,-1136.3578801369,-920.7523473604,-1338.4208170405,3494.1813563853,3494.8547382757,3494.9709038403,3494.7325321917,3494.3124119914,3495.2385010758,2737.8554038899,-185.1557609588,-949.5324967745,-174.5086850689,-669.05024617,-1629.0860236514,3495.7911322421,3495.2262992747,2.4329971978,-1511.9553781204,-1512.579760542,1285.2012856515,-0.7189760718,3494.7461144562,0.5094729345,3494.7733388668,3494.1269325154,3495.0217288499,2915.2940277978,-471.2761302774,3.0421897826,3495.4041543371,0.9029556829,-1278.9042815102,3494.1833851145,-3394.2543696446,3495.3989251101,1.9056689676,-0.3593036993,37.9576214803,-1047.520347172,3494.6456539809,3495.1637745192,-0.5184325427,3493.8764463726,3495.5425327384,2623.9906224015,3494.7046938304,3495.7481186253,3495.757607804,-669.2538153453,-1.3766763281,3495.3731849279,-16.6385515654,0.3133029619,-2446.1799970419,-292.9175478691,0.7333027721,3495.197495836,0.9554364082,-470.7349168114,-1293.599904804,3495.3886188435,2624.9288345962,-1338.355913856,6.6965955504,2624.1935125453,3495.3396438542,3495.1330738237,3494.8033523348,3232.9614293561,3494.2164349043,2920.6911370047,3494.5131878629,-1512.0331666498,-1751.2947420361,3494.8095995145,3494.6536721512,0.3088581321,2334.5377252739,0.0087114247,93.4124940346,545.9103045146,3494.8539875092,2927.4800979379,3494.5055572015,0.7116993638,-0.6266222198,3495.0580086583,3493.9928956347,-1512.6214846238,-1277.0288321569,-2421.8466091355,0.5577391926,-184.5533450123,5.5083895842,-0.1270437408,3494.380304972,74.8361874258,-1.8101173069,3495.2485446615,-0.4905834363,-0.6205613638,3494.0947476725,-183.6680201231,0.9645139111,-1511.7718053421,0.0005018114,-1277.8816035177,-0.1792158421,2915.1792434768,0.2014752151,-1673.4801948961,-0.8461610759,3495.0967797117,0.3997384661,-2560.4403653308,-557.0424167634,-155.4461033899,-669.0313604203,-5.5345352384,-3294.4332521628,1.0469420342,-1897.9225438855,-2695.1646984553,0.1955685095,0.15126313,3495.0958938742,3.6332506915,1.1445548018,3494.5976513824,3495.0463751891,2049.6529213562,-184.5552396975,-1747.5012419613,-3.5558561864,3494.2672096833,3494.4671321712,3494.19958047,-5.1035113947,-668.2081339213,-1046.5429864841,1174.0174271628,0.940952171,-0.4531711213,0.6559900847,3494.1691559422,-948.3292617667,3494.0727987783,0.9482482091,3494.2831041546,3495.101842449,-0.5405268381,2340.2186828479,-2578.6242157507,0.9322578762,-0.7862733626,8.1105237013,-1702.5665513556,309.1752865977,-0.1785560601,-808.5651907024,-292.8002877239,-0.6056738181,-1145.9046378012,-2584.2389814496,-1277.2202102101,3495.7709626547,-318.456088279,3495.0452377465,3494.1210274592,-685.9394244851,3495.3429448458,3494.8330108044,3495.6628832764,3495.241046618,-1292.185358051,-3204.8258935714,-2298.0851703469,3494.2571200431,-1338.1294471472,-1959.0205662397,3495.6657707492,-1512.2509983171,3493.9219059256,3495.1591102891,-0.6663591383,-0.0602313111,3495.6422940626,1.0123333577,3494.7369839604,-0.8009892889,-0.2780499294,0.4207201745,0.9882682396,-0.8538024161,3494.132795695,3495.8021374269,-1511.3563109491,2924.1481438611,3494.5851973583,0.9336867347,3495.7894799952,-0.1918330842,-0.6267393359,-2189.319989445,3494.0238534164,3494.9684219681,3494.9479926161,0.3482218974,-209.4499938526,1.0800343922,-0.8728985888,-3294.0827176301,0.8232129785,1.0211373819,-948.5179464225,-209.9444771075,-0.8824827174,1.6721185392,-1278.5926440188,3494.6192948555,3495.7309986747,0.4127079111,-1468.102992101,3493.8669711426,0.4939786549,3495.3561045512,3494.160587158,3493.8698886034,0.6978987909,3495.006932606,0.0785560657,-0.1529708452,46.6523472374,-2421.96194113,3494.2005217294,3495.4246140396,74.134456884,-920.5682271704,3494.7549908957,-2560.5436583286,-2646.6809767096,-0.1021581185,3495.361402975,-948.464339331,3494.6220910342,3494.0729775126,-184.8430553386,-2094.2959438993,-1278.2436113537,-1047.5095055371,3495.6705158088,3495.2557526482,0.3846584431,3494.9125489007,-3046.2108924554,3493.8851038915,3494.7031363284,3495.029880754,-1047.3118803309,0.2836038564,3495.0998651012,1.0086529165,0.7977945236,3494.6502458601,-0.5618889386,2334.3403123631,-580.0508993154,0.2904444563,11.013442356,-32.5177455856,3495.2322086315,-20.9542546801,3495.786336858,0.4565706307,3205.8908628204,-2794.6885504449,-0.7138915067,-0.4247279324,3495.6228524472,0.6400201799,-1338.3770052077,-184.4838189071,-1046.9138108159,0.0576672763,-184.1989088588,3495.6933402246,3494.00653836,-0.6753650893,0.7488867756,-0.4698475853,-1.043835934,3495.3325591816,3493.9818921887,2550.8944891965,3494.8299642562,-0.8839064879,3495.2669399462,-0.584385965,-0.8248429266,-0.5084481904,0.9460571446,16.2156158658,0.7495962812,3494.4978464892,3494.2973861299,0.1072059632,3494.7593913619,3494.3738320095,3495.6873447638,-0.029969703,-2944.5959108298,2914.0726431324,3494.6325232761,3494.4577289399,-0.1085950369,3494.356940307,-478.4514730605,3494.0267298091,-1278.5537910309,3494.7322270935,-0.5421812367,3494.7934882032,-0.228717833,-963.6869499764,-172.0916853706,-1275.2200434417,-2945.9639207571,3495.4437444125,3495.3294484708,0.5372872169,-1836.7453519356,3494.8904301515,3494.4129013239,-185.1387839781,-910.2125380848,-0.8595489529,-0.2962752774,3495.6861040723,1.3081916679,2335.0901786586,-294.474098843,-0.6582519715,-0.2086804089,-2896.1004929691,3495.7210451497,-2496.3000670107,0.132778926,3495.8325735405,3494.1326013759,0.8730617117,43.3051810733,-2246.6799681495,0.0741518172,3495.0247770027,-808.7937292738,3495.3237290835,3495.5680420869,-557.4032040946,-2578.5748711509,3495.5864907004,-305.3489618133,3493.9685913604,-0.216970949,0.5954984184,-684.9049946404,2914.4788412765,3494.84841871,0.7604616518,3494.9133229057,-172.054689658,-1072.191201549,-0.1638786168,4.3119024879,-949.6894197858,-948.2169820653,-1292.1947005444,3494.2083626285,3493.8837843745,3495.168913688,-0.8613356321,-2422.0048149254,-0.8079583926,-0.3993736935,3494.5390384636,3494.164046046,2921.0722781556,3493.9576634421,-0.1980656105,-470.3071431629,-2577.9432139098,3494.7507779598,-684.7264845033,3494.7287891936,3494.728352405,3495.4438330601,-1278.4954211012,3493.978494725,3494.7584946735,3495.5917081635,3495.3502715123,0.5537772003,3494.5901531068,2.1912173344,-580.7623687779,3494.7768147128,3495.1673973549,-5.5361663523,0.3751110837,3495.336592483,4.2925728906,3495.4089436408,-2796.56097923,-0.6200540192,-1054.3349944943,-185.1803920349,3494.2427957126,-685.7289675064,0.0081619375,-2577.8035751484,-0.8392168751,0.2229737246,3494.4151981659,3494.218076149,3495.8068891519,-920.7274886364,3494.1545963608,3493.9171768079,-3207.6768791928,3494.2655855698,-948.8513004801,3495.1805729153,-0.3823670775,3494.2484459287,-305.3294349805,-0.4653583464,0.0165062845,0.0797245733,-0.5466760974,3.8487653261,3494.2568762252,-0.7483275891,0.8927865669,-808.8893507278,2050.2488386243,-1422.7311071303,3495.7255576054,-3197.7216486996,-0.2426273391,49.4987509477,0.9687869245,-2098.8003388201,3495.7824877145,-0.6280996332,3495.2360772198,232.4524623645,3495.6887131863,-318.069398539,3495.0934568045,-686.3930714814,-949.9546799483,-1291.8133546907,-3197.6829147286,-0.9161239703,2625.4223666992,3494.2537975096,2049.0694248656,3495.8228219433,3495.2415747659,0.5148071338,3495.1614072586,3494.4954953106,3494.9132779757,3495.721330682,-2561.2331889392,-0.3631844511,-2187.7890561249,-2696.3717256944,-1336.6800364234,0.4051580107,-2425.0632413965,-1337.7975830613,-1054.6057429037,3495.2553641792,-948.5936490141,103.1515670014,3205.0300769377,3495.462907192,0.7184854505,-0.0493688502,-1055.6512409694,-2421.3709786296,-172.5382360534,3495.046790573,-2996.6738509686,-0.8179940719,-856.3953244348,3494.0253445089,-5.3048963556,-1469.2853539236,-16.4641062961,-937.9942599067,9.806409768,3495.4561503012,1.164073553,3494.2397737801,2756.2205473538,0.0266396103,-0.8260408295,0.1360051005,-1337.1338965679,-2094.8533485488,-1292.0558804214,-2946.07468189,-1291.8153499769,0.8030427185,-1778.9598896549
   -294.3284728905,-0.1208629402,0.0847259416,-4.7833648399,3495.4262312548,3495.8333864819,3205.3896237184,-3394.9134329552,-1293.2225892338,-784.5162542975,-294.6806745489,3493.9202227956,3494.1109108947,-117.979435042,-0.3948252588,-0.5431169099,-1055.0678399357,9.9790059939,3494.1368356538,0.2885217364,3495.3135582026,3494.2910676444,-2094.4868115313,-284.9641926883,-21.8640369191,-581.4419438108,-2597.9350440609,73.4146631815,-1628.6729751661,3494.4856520283,3494.0299746384,3495.284944029,3495.1971584249,3494.230999657,-319.3476300695,3494.3457091447,3495.4782164488,3493.9464215383,0.1556005276,3495.6773668033,-2.0132362148,-185.0172278957,3494.5829912022,-3444.9635110614,3495.6106723941,-0.1187743635,0.1135383035,-176.4067528685,-1054.4688386126,3495.3178795903,330.4668229209,2918.3170879858,-947.9871232216,3494.422035196,0.4104575151,3494.4796980981,2624.4611640183,-318.213422626,3494.3770803487,-3.3976197268,1.0091821389,0.3338942274,3204.9676568941,0.4622357943,-3494.0313514701,988.0692455278,0.1305537381,-3.2363928294,0.748109159,-0.3494860876,-3495.3290330244,807.4846326081,-0.7751923936,-3494.9628454491,-3495.7800880167,-3494.8304273792,2498.7585424889,-3495.6294698139,-3494.7149213559,-2927.1198994525,-0.8129464092,183.6157703035,-1.0436232576,-2.172383836,1085.9463228742,1278.444613037,2578.6181737395,184.7031001848,0.5834690729,669.0468359078,-3495.8135061364,470.3088856848,-0.8213133108,-3494.9959968771,-3210.4304507714,-3495.3759877573,-0.4631985845,4.5642129519,-3493.9124814392,2.8088709706,-3494.3308854505,-1.0155181294,988.0178073454,469.7968911901,-3494.8922927828,-3494.7554240051,-0.5890132913,-2.9218735085,0.516356932,-171.845595661,2421.2080197556,949.0940163043,3203.6228509582,-3495.1932508315,1071.6474041539,-3495.6115440992,-172.0051082855,-3494.8841981496,2195.4332233123,-0.3922532035,-13.4841957606,-8.3707678196,3205.0248460332,-3495.8059287808,-3495.0715316203,0.7640722772,0.3266556334,-0.8911204895,-0.9897291593,2660.5756498557,118.8127001605,173.8141280906,1511.5237816429,1055.4775833521,6.4288732171,2948.2092661193,1823.948777755,-3495.4083084189,-0.6891486254,-3495.438505688,-3494.465371347,1938.9540728716,185.2149962832,-0.549904817,-0.5809979196,0.0927504078,0.8182505815,-0.2015795782,-3494.1186618559,669.890451775,921.4558851594,-3495.4540840953,-3495.3355546904,-0.7680677354,-0.312375398,0.6352652408,3308.5066506191,0.8286377464,173.0150551632,-1.0382015051,988.0926032041,208.792601277,-3494.2850766029,-3495.3701011058,2645.8047853758,-684.3959935542,-3494.9742274068,-3495.5116496791,-3495.2130125086,0.6480286241,0.8667743968,28.0673679056,-0.664521849,632.8494164421,-2927.4462501447,209.4822239019,-0.7533415858,-2625.8902594691,-3495.7917401804,371.8385032283,1503.0600136307,-1.4244381157,-3495.4688940411,-3495.7665990941,-3493.9125582538,1664.9671421782,-0.7310808412,-3495.2462972662,-3495.4122064193,-3495.4359711131,1512.4415688626,-3495.0494560772,-1.1909319364,3147.9947865966,-0.1507018374,-3495.5122111066,-1.0687551104,0.1513796873,-3.3103961453,-3495.5826614734,0.2798781332,-3493.8572714903,-3494.9850534569,-3494.7927291581,-3495.5193942319,9.4292621579,-3494.3804425115,-0.6867164865,6.7783686041,-0.9930526236,3.3750659624,-3495.5183405012,-3494.1146879499,-3495.7058682909,-0.2239262593,1511.4589266818,-3494.2841571667,-3494.4079804774,1501.4167203751,-5.6741765107,-3495.018716953,-3495.8118693644,-0.8561932414,1293.2318926117,-3495.7420882716,1071.6927271395,-3494.7241554856,-0.0628379543,-0.5581686915,-2915.9859435809,1512.8427465771,-3494.688697954,-3495.6260300954,-2913.8122977878,-0.4163245301,-3495.2196790751,-0.4265191957,910.0842412287,-0.8783771682,-3494.2265130717,-3495.3195309625,-3495.4710218379,304.2662865936,-0.9459636759,-0.4442200656,0.8874832485,-3494.4256950911,-3494.0161166583,-3495.6548236655,4.3996942505,-0.6146017873,-1.0148437896,2577.795085152,-3495.2522224013,0.8118381486,-0.2530651376,3.342634253,-1.1268650505,0.087291247,1278.7309328174,1292.6956087198,2646.1800606205,-3495.6512498785,-0.3445370092,1382.8456570581,0.2625866766,948.9823079204,-0.2284839488,-0.0733802994,-3495.7175966221,-0.7524581305,1277.0709774871,-3495.0288136065,-0.3232384611,-0.7902894526,6.0203544079,-3494.0766394758,-0.2812642092,469.7322902192,-0.6212595298,0.0116319233,-3494.0895674124,-0.2109429327,-3493.9209446787,1291.9769287528,2561.2504999762,-3494.2869261199,-3494.5176737825,-1.0144370809,1337.8856216931,293.0021776122,-3206.3708277453,-3494.2676789054,-3494.9840509548,0.4136461974,-2916.1969663074,-1.26318872,-3494.3296650526,-3494.9624419917,2961.3079697939,2188.9474391083,-3494.5459571195,0.5479509751,1277.6394686491,0.0947123569,-0.3887617789,0.177111524,-0.9371248308,-3494.6697044077,910.155101693,0.1673151544,-3495.2138900841,949.4168954764,-0.8904129739,0.8105540214,-90.4691455721,-3494.6200328536,-3495.5991454288,-0.512117655,-3493.9749778211,-0.400042035,-0.938055569,173.0171877651,2.9514311403,294.4159276682,685.0615494183,0.4202114452,-0.31537591,-1.2455140903,2943.4591352558,-0.6530629751,-3494.060800823,-3495.2747835843,-0.2482203459,-0.2014036378,1278.8670529119,0.2620390784,-1173.9784165624,-3494.6097355589,-3495.5172775221,-2912.9972664245,-1.0028689705,-3495.1867272281,-3495.7011527346,2338.1275123582,0.4001412208,-1748.3987049397,812.7895919379,-3494.4433478289,2425.3115637047,2564.4817200795,-3495.8215205189,-0.583362156,-1.1717018169,-0.4042929199,1278.2778241894,-3494.2494053354,1.1844041887,0.2396140067,0.8596417846,-3494.1499631097,1086.035939613,471.0217851651,2188.4565558769,173.0472727583,304.3512417017,-3495.57930876,-3495.7652109993,-3494.3628095001,-3494.3325024539,-3493.9157289631,-3.2525664436,-3494.2623679681,-0.7051528452,-0.2776837686,196.5067682411,-3494.1659220037,365.5062232675,1277.7307165734,-0.7408341063,-3495.3266649762,1423.0868643656,-2919.4861219509,3307.3738403956,1278.5998854843,-8.0313711545,2421.504279697,-3494.8230919213,-3494.4547204248,-0.8512042163,-4.7843168071,-3495.7626810862,0.1581940912,183.672004895,-3495.1060460767,-3494.1990526236,0.6833186349,988.6917934239,6.6707439791,1293.1319526086,-2626.9243977301,2188.0296655075,0.100859441,-1.0286070882,-3495.1606123198,-3495.328488881,0.4072860137,-3494.4571654696,2059.4981695185,-3495.6394609462,-0.7626177634,-2337.4868841211,-0.8501775605,-0.0350614593,1086.9241506508,1278.3163065059,-3494.6109538509,1512.8836336463,-0.072283519,-3494.3886546758,184.4567262325,15.209090309,-3494.5412450412,0.8152322618,0.3512363765,-3495.249998837,1292.5698388532,-3494.2525451608,0.4470080563,-0.0896781853,-3494.8013258767,-0.5953323664,-0.8311873973,1337.9271555236,1.8804307616,1277.7194806105,-3204.3392900832,-3495.5857448136,2560.7024687216,-3494.6374842061,-0.4574058382,-3495.5747805551,0.1947303471,1086.5730045819,1512.7571996601,2962.2613047034,0.9000266994,1338.1973227509,-3494.6758970186,6.0897769224,-3495.5590635384,-3494.3550238486,-3211.7695459603,2496.0690977519,-2629.6153192878,-3495.1637162811,0.10926858,-0.8493896334,293.7077330464,293.6654594373,-3494.0324057561,-3494.6676878556,0.0742062573,330.9165861996,183.4096549661,3198.5606995523,-1.1196003049,293.7158177015,304.3278699234,0.1146504859,922.3529376973,-3495.5759974131,193.3806640239,-3494.4214498823,685.6913717998,-3493.9475522363,-3493.9747882924,-3494.4137001854,-3495.5563940528,-3495.4767362067,-3495.0773556612,0.4439653767,-1.1496449859,-3495.2401525132,-3494.9275300792,580.6160735271,2544.5834899816,-0.3725614863,3197.9899763343,-0.5236963196,-3205.2946081647,-3493.9496996844,-3494.6866469438,534.4233712309,0.4855080969,-3204.766623246,-3494.5718309346,-3494.2765164012,0.666334753,2494.9223005159,-3494.8066141626,-3494.9209483719,-2916.4626711057,-3207.8106123567,-3494.3393901684,-3494.9981670549,-3495.3401675152,908.6274458548,-3494.9948424905,-3495.260566984,-3495.3758691407,-3494.6653464453,-0.8532300148,-1.4681514561,-3495.2185657945,183.7069693903,0.6593683078,-3493.8602641486,0.0279823764,-0.1552079687,-3494.3842310729,1.0364898052,-0.9045407369,1072.9706097205,-1.1578423567,-3495.7011094715,-3.1792459047,292.8362199445,-3205.1040263626,1.3311328679,-3495.6828311344,-3495.4553459476,908.9048850416,-3495.7819501262,-2625.3147486458,-3209.7013431495,-3495.4831565867,-0.0495555848,-0.9947126136,0.860599309,0.2760738315,0.6355731253,2188.6334681782,-3495.2056190896,0.5209956426,-0.093206795,-0.2252185959,60.0731309566,949.70339255,-3494.4139023784,-3494.5066476119,1055.5377433911,-3495.818799682,-3494.2245777374,0.5589407815,2422.2455420258,0.2254256704,-3495.2761704257,1545.4052460533,-3494.3580020416,-3494.653887736,1984.1995574851,0.9745456524,0.5250810369,-3494.6424542482,-0.9516532917,-0.7942991041,1048.0194526859,-3495.2452462201,-0.9115692321,-3494.5563031302,-3495.6961322223,-3494.0262921708,-0.4159109556,184.4791153894,0.7675935333,1550.5953617903,470.8910109697,-1.4510368861,-3494.1438835583,184.0041224507,-3495.3777862668,2023.583558985,470.6628545881,-4.203136882,-0.4184543629,208.6966528257,1337.7738487433,0.5509085891,-3494.9788056161,-2918.0068014354,21.3606045029,1270.9672392772,921.7016833004,1336.5947858404,-3495.1005177518,-3495.2897243905,-3495.4466710822,-3495.3201392703,-3494.2266341102,-3494.6423471095,-2630.3161250486,184.7741215903,948.8659005904,179.2688775879,670.0126223934,1628.5962081642,-3495.0162092366,-3494.0735445345,-1.5901982105,1511.2675736227,1512.2499328333,-240.6776914164,-1.0753130274,-3494.8460116198,-0.3639322879,-3494.9131754769,-3494.8232338185,-3494.4955912031,-2914.9466348313,471.1395183714,-52.9134394347,-3494.8198028651,0.797124153,1277.961006266,-3494.7019741089,3395.7952611907,-3495.8084894909,-2.7137434514,0.8386693747,-885.3774036335,1046.960389837,-3494.5400538234,-3495.7617462831,-0.2816465533,-3495.6806082487,-3495.6203230469,-2624.1020793959,-3495.0665449014,-3494.2057839543,-3494.0784759442,669.1028577841,1.5961531437,-3495.7352752552,7.9540168062,0.8215891005,2336.5787345588,293.7167364753,0.24690668,-3494.2365404256,0.8479252576,471.151390885,1292.6406875456,-3495.0726076734,-1173.7526332934,1337.2098910408,-4.3563425479,-2624.8089749635,-3493.9660719074,-3494.7969509498,-3494.9190753234,-3207.8239229768,-3495.78948328,-2916.1371073675,-3494.4963620194,1510.9892928036,1752.1391774978,-3494.1099492784,-3495.1421518487,0.7258891059,-3494.3007937532,0.5885024908,-1481.9920987101,-9.0880517615,-3494.9622271558,-2927.6681760034,-3494.702152814,0.1401774441,-0.0667705365,-3494.2886950353,-3494.4750387446,1511.3351832802,1277.0126151936,2422.3829772784,-0.6872193734,185.0568755724,-0.0721895967,-0.1466094357,-3494.5030448279,-12.5976256953,0.4146975084,-3494.652368064,0.2724169764,-0.1653399661,-3494.1996658567,184.7797552151,-0.4058248793,1512.4709475995,-0.152748757,1278.7947407221,-0.6008452001,-3494.1133042423,-0.8450252506,1674.205520377,-0.2389576989,-3494.0628353265,1.0302833882,2560.7594425934,556.9929125063,128.9679383524,669.8825228174,6.4746766145,3294.5635136979,-0.498313492,615.5327745292,2696.1504744184,-0.2459368167,-0.4449940947,-3494.0819696184,-0.2868224881,-0.1782280267,-3495.3325094414,-3495.8113419429,-2624.0314517837,184.047064209,1748.9739698065,3.65884219,-3494.4642027426,-2045.2706258483,-3495.8096334327,13.539223349,149.9715297344,1046.9153331556,-1466.0195180288,-0.7279794899,0.293492401,0.2212851402,-3494.8102437891,949.5525526607,-3495.5635813249,-1.5114113915,-3494.3648248392,-3494.7473374184,-0.8361120623,-3207.594248465,2577.8090313177,0.3242783524,-0.2909035194,-4.2791118167,1801.5381104905,-3.419056712,0.1914115616,807.6284370154,292.8360169868,4.1127027302,1145.7340284729,2583.6407828359,1278.6813172677,-3494.5602181687,319.1692549544,-3494.2301182729,-3495.781446498,686.4276766821,-3495.2128928152,-3494.9539172158,-3495.5505502912,-3495.0653271842,1291.9652852711,3155.8395275796,2299.8532745481,-3494.6087557001,1337.5851213576,1959.9585890256,-3494.7324464138,1511.2708954059,-3494.0036969656,-3494.4076154898,-1.0406699828,0.0923836977,-3494.8824717329,-0.4012998165,-3495.7097931092,0.087876475,1.5838468291,-0.7192009054,-0.7003477475,-0.1821108115,-3494.0811245404,-3494.1329144488,1511.2924330067,-2916.9020811445,-3494.9840471121,0.7593018898,-3494.1877007701,-0.2867868593,-0.6355446824,2188.1209806407,-3494.439183644,-3493.9350005521,-3495.7156028764,-0.4805714309,208.7338362892,-0.7353223721,-0.8973138233,3294.9830505907,0.710937134,-1.0942513414,948.8282282713,210.2846965528,-0.7326801932,-0.7586366307,1278.0395413524,-3495.2577818333,-3495.7423816033,0.4579429595,1469.423283237,-3494.9821286562,0.6322401386,-3494.6020636127,-3494.442644072,-3494.0673599596,0.0232002878,-3495.5269684397,-0.8820937798,0.0911289997,-1.1288967779,2421.2341103427,-3494.9990781644,-3495.4479133409,-12.6364202378,920.6761032824,-3494.2422019718,2559.9614234718,2646.8049258771,-0.5394706108,-3493.8579912905,948.806965987,-3494.5286611547,-3495.3665670769,184.0554008683,2093.9404660973,1277.4419198674,1047.2413093519,-3494.0730705701,-3495.4264758274,0.8941297266,-3494.7081145941,3045.4544833886,-3495.2537196992,-3495.6066524801,-3494.2213480131,1047.8982663806,1.5312211749,-3495.5954393295,-0.9384710014,-0.0615246099,-3495.3859723328,0.6845373299,-3494.7859769365,580.8175173285,-0.9985716698,-2.1098807094,90.7617572539,-3495.1767134034,21.0637268927,-3495.0778027636,-25.2245473536,-3494.7003847879,2795.5834359251,-0.5162521858,-0.2858545921,-3495.0567494254,-1.1608813776,1338.337196979,184.17074488,1046.8533364267,-0.2301329509,183.7600298972,-3494.4966601719,-3493.9611871413,-1.0682582818,-0.9396538777,0.7786636693,0.3514120534,-3493.8517887772,-3494.9366521786,-3495.4040608137,-3495.4226940602,-0.348401428,-3494.0149943589,-0.1476603928,0.7611421551,1.280032617,0.3867795093,-34.979074233,0.5753753781,-3493.9399971827,-3494.7035045179,0.9689889135,-3494.5237183694,-3494.1692099833,-3495.1326079615,-0.4775516312,2946.0293287166,-2920.6316941966,-3495.4973814505,-3494.4903111109,0.5445609803,-3494.9954864733,478.9008261336,-3494.1433988936,1277.3152898856,-3495.6606752889,-1.0775768294,-3494.0875617261,0.3319439265,964.6730174667,173.8939324929,2308.9858716449,2945.5027090827,-3495.5197631888,-3206.4567516989,-1.1223507705,791.9035632585,-3494.7868440141,-3494.1151453285,183.9147231629,910.1192778145,-0.4520637797,-0.5587023468,-3495.7519789348,-1.7141126913,-2917.1883878173,294.7342464246,0.0950982155,-0.9275579977,2895.1480660126,-3493.9242691451,2496.5271277387,-0.7100222951,-3495.5065763704,-1754.7058218869,0.7041921372,-94.5617430358,2246.0618027814,-0.251299371,-3495.7767545649,808.6035064776,-3495.409036051,-3495.004011231,1336.7769578495,2577.4920421014,-3494.609485845,304.5291377365,-3495.672579784,-0.6627026927,0.1678044528,685.9490624402,-2626.3427981861,-3495.1026373503,0.7753893061,-3495.4930293706,173.995370041,1072.4598480508,-0.2208616659,-1.0862907691,948.4239426988,948.9674002445,1292.3262662971,-3494.6533912706,-3493.902724864,-3493.8596192015,-0.2090485463,1985.0430243923,0.2589846801,-0.5137835015,-3494.8078795924,-3495.4097331635,-3214.6211996042,-3494.937386584,-0.885280575,470.1661828917,2579.0080980577,-3495.4426884609,685.3934522992,-3494.9597145466,-3495.2223220147,-3495.0021982551,1278.92147861,-3495.4107041709,-3494.1775711913,-3494.642454602,-3494.628470864,-0.4050614785,-3494.2200785473,-4.493351729,580.5852174083,-3494.7374789496,-3494.8407041715,5.435505459,-0.3042625115,-3494.8955235479,-2.6930904464,-3493.8765525806,2796.270412015,-0.8892001276,1053.8526059473,184.3027981897,-3495.335478407,684.9964217248,0.3421804771,2578.2291660512,-0.4955716391,-0.3390882279,-3494.5476574637,-3493.9857104774,-3494.7090601069,920.6477207273,-3495.7532769872,-3495.4351406136,3207.551137423,-3495.7605976267,947.9857312056,-3494.2659035086,-0.419661112,-3494.2180341151,304.8631384889,0.582776529,39.5959304456,0.3416890145,0.6282383382,-1.6412487534,-3495.332730713,-0.1133498001,0.889459796,808.7495530267,-2916.4278997283,1423.0296479493,-3493.8440862917,3197.2128112253,-0.9708770852,-296.3602892987,-0.7182914382,1978.6033055614,-3205.4246052974,0.3717994536,-3494.0740637116,-1424.8901074942,-3495.2214178254,318.3776081206,-3494.1046929732,684.8813469971,949.5536710166,1292.7566832263,3196.99588711,-0.5760995159,-2626.5894504721,-3494.8786049904,-2915.6459864859,-3495.4658805884,-3494.6511516935,-1.0202927933,-3493.8983164906,-3494.7263166779,-3494.8628483555,-3494.1081371246,2560.7570135359,0.1692402328,2188.0569982431,2595.5471015699,1337.049476148,-0.470609509,2425.5980886939,1338.43937919,1054.6644642322,-3494.1995680926,949.0182259714,-298.4168572118,-3206.4262768225,-3494.6285035387,-0.9561883165,0.1242011989,1055.6716499213,2420.5930263592,172.3650868682,-3494.0728528308,2996.1392311455,1.4854558571,1146.0164093096,-3495.2803379364,3.9827511937,1468.2073485838,15.5175795594,938.3920608811,-7.4498918131,-3494.4613853366,-0.107010156,-3207.6151639413,-3209.257848882,0.176170742,-0.04323393,0.0710121108,1337.758340208,2094.1576904281,1293.5515737558,2836.7452848024,1291.8581068632,-0.4847755151,1780.382946267,294.0279468057,-0.5370779085,1.209232193,-1.8179790426,-3494.561332154,-3494.5364344878,-3206.6201923805,3395.3261719974,1292.9104789794,144.3939071139,292.9803617436,-3495.2225185284,-3494.6492791895,281.4821961787,-0.5340273557,-0.3388808361,1053.8502235078,-0.5651002423,-3495.6678514586,-0.4509146106,-3495.1233596149,-3207.2559185651,2094.0983880636,686.4087204599,22.0495511347,581.0844797083,2596.1158313827,-5.6542506234,1628.0021531252,-3494.800794569,-3495.7800478981,-3495.359447265,-3494.2834061449,-3494.934989471,318.8074877204,-3495.3817806689,-3494.6397247127,-3494.8463380917,-0.0167817733,-3494.8981626639,0.7031926439,184.4126934506,-3494.8036991378,3445.0459341824,-3494.2567537283,0.0375505657,0.4261574074,35.7736869449,1055.0077223846,-3495.8296745195,-108.8826760092,-3215.1954040705,948.9443697014,-3494.758168884,-0.7600256177,-3493.9745665715,-2626.0619461727,319.8412355387,-3493.9867380175,4.5369165453,0.3237307352,-0.9554858929,-3205.2510890948,0.3327067241,2914.5927910465,-987.4381850312,-0.6441597865,1.3691426393,-0.8531201797,0.5806969217,2914.8694839948,-335.5167134133,0.1049552076,2914.7326265556,2914.9034462023,2913.489152874,-1609.9730200575,2913.5037676203,2914.1418751762,2235.0051121518,-0.8098416577,-182.6266209883,-0.3750975895,0.1974742486,-942.4978914834,-556.2549617036,-2080.0541705838,-184.2758369672,-0.4997321212,-279.5188909737,2913.535217647,-470.0043409078,-0.353484608,2913.5203233281,2914.173278586,2914.3157180638,0.1700158842,0.0637576393,2913.7783455611,0.1298546483,2913.4580836572,-0.0595140075,-987.06829538,-470.1362064114,2914.2005159169,2914.6968930836,10.0279005623,0.7939581405,-0.6343530297,170.6571401495,-1984.6590238764,-789.133591455,-2614.5071502213,2914.9318352608,-185.5599736843,2913.9011860941,425.2785504468,2913.89570813,-1955.8963810139,-0.8477382553,1753.9298864582,4.1931927025,-133.9881610239,2914.5684700828,2913.5615462416,-0.9177495981,0.5203038754,-0.0262025093,-0.9247958972,-2298.182571867,-119.8328800236,-172.3785103116,-1510.629863049,-365.6707215779,-4.274111117,-2319.6376510522,-1462.0155316143,2914.8554804499,60.5188217327,2913.2473239135,2914.8884457631,-1309.3806178386,-183.6566676152,0.7539070045,-0.9727825428,-0.4216878045,-0.0265625945,-6.4628113882,2914.5274902035,-278.4014050079,-919.7766759873,2914.1797250322,2913.0719018668,0.7464852996,0.2416579564,0.356550985,-2716.1851856735,-1.0131045907,-171.5631727872,-0.4330786609,-987.0268843909,-208.7153438933,2913.8069708968,2914.6400134368,-2325.178672552,54.5402977684,2914.1988294518,2914.3087564464,2914.2483794159,0.7545452042,3.7428565658,-4.9330997436,-0.1272069986,-632.2197959713,1755.0375825539,-208.958115924,7.7837899398,2914.8834005796,2913.4801154954,-64.2081858881,-259.5382716259,1.21719941,2914.1956879418,2914.4200382329,2913.6511503034,-455.5101044396,-0.6405129567,2913.2513974625,2914.8700161395,2913.4659255843,-1511.9599785159,2914.3654576806,0.6101523839,-2564.6800124836,0.1245788718,2913.1701042765,-0.8467730111,-0.1708543153,10.3341470931,2914.9874067409,0.2934399202,2914.2961436392,2913.8822403336,2914.4456902139,2913.780415747,-1.7241212492,2914.9953425787,-0.5022486741,-3.4959446375,-0.9415961606,-2.4973717614,2915.027596066,2914.1711968534,2913.8761244191,5.3606842161,-1511.7783820013,2913.3507870035,2913.9151688116,-872.090227723,31.0187774663,2913.4210794458,2915.0481875509,-0.8776497647,-1076.6705641069,2913.1780196368,-185.2172999657,2914.0731056476,-0.999664648,-0.4175317371,2625.3314352565,-1510.8056552681,2913.5768528921,2914.0558130042,2333.8966272665,0.1148845696,2913.1427309425,0.61229209,-377.4062918844,-0.8262321003,2913.9825547469,2914.4082585393,2914.8602328639,-304.2515014858,-0.4945681398,-0.6945854689,0.303862165,2913.3200179635,2914.6339956211,2913.6371261097,3.8683577684,-0.0159065657,-0.5973983267,-2080.0212364538,2914.4246529322,0.7982379645,-1.2596996944,-9.3626578604,0.2316277448,0.5489586099,-556.3560250887,-1075.6221472907,-2324.9813601357,2914.9829889047,-0.8986883478,-357.3513332395,-0.1926397587,-789.1801877408,-0.284142345,0.1652899356,2913.8094453131,-0.5713415307,-556.2598958113,2914.9811118071,0.4607074461,-0.3232709748,-4.5015063699,2914.8667614617,0.6951265838,-470.5951203336,0.5367669325,-0.8768231372,2913.9395197018,0.6557309982,2915.0047028455,-1075.2852514432,-2158.0378725067,2914.7840006118,2914.4984804848,-0.0197403147,-1336.4873379311,-293.1234233368,2623.8250101135,2913.358883871,2913.1684767565,0.9562885621,2335.9723048657,-0.3580097474,2913.2724533425,2913.4239854821,-2336.5010067453,-1697.8714279993,2913.5067510165,-2.7231839606,-555.2841185411,0.6051113569,0.5672140923,-1.0497398256,-0.1831283745,2914.9610766449,-378.2293312396,-1.0719392059,2914.0613561664,-790.5038620296,-0.2409519008,0.4232304177,1544.765892321,2913.7104160785,2914.3390114457,0.8226112994,2913.9650336346,-0.5633577892,0.7535393619,-172.2257399812,-1.8301278485,-292.6209735084,-285.339479783,-0.6731475589,-0.2853899815,0.883391946,-2380.2235362111,-0.88585219,2914.8320240352,2914.8573509282,-0.8162671029,-0.0106518153,-556.113265363,-0.1501626969,2624.2862357925,2914.775775902,2914.9637434511,1753.6400761648,-0.0060241304,2913.0642026608,2913.1089860955,-165.351703974,0.78557043,2333.2933815005,-811.2999078299,2913.7190611044,-1604.7806912439,-1618.9651704952,2914.3046662964,-0.6213734069,0.4923633993,0.2110968058,-555.8059121938,2915.0033417059,-0.4310160443,-0.2628795961,0.2360510864,2914.867039709,-941.9625979639,-469.232686667,-1697.186725487,-172.8062683777,-303.4677337291,2914.7381822148,2914.2981263088,2913.1964643346,2913.3998836347,2914.887295904,-0.6560665416,2914.9501233793,0.1927501471,0.3829403928,-195.6286247149,2913.6398830107,-365.1015952048,-555.4553995033,-0.8694688671,2914.3479702029,-988.1257480563,2333.6127044129,-2715.7780825243,-555.0566319736,4.7359993787,-1984.2230536167,2914.9607757161,2915.0277852281,-0.5245367141,10.7726882746,2914.3075417292,-0.363770877,-183.2280611838,2914.3971613243,2913.2628399756,-0.8919011073,-988.2142392196,-5.3322754828,-1076.9535404176,2624.135287867,-1698.0152297101,-1.013160732,-0.2153775922,2914.4065447946,2914.5506810474,-1.0512336111,2914.8926854383,-1998.3068674804,2913.1012059003,3.9539438343,2913.7251969082,-0.3252108194,0.2544175125,-942.4956395485,-555.686567719,2913.9969262216,-1510.7219359218,-0.1714229955,2914.0175409179,-182.9517476132,-4.0543045666,2914.529522231,-0.1570688212,-0.6478073091,2914.2088500633,-1075.9893222098,2913.1911245698,-0.7774275744,-0.7900182437,2913.0966520103,0.2222989977,0.2932378244,-1336.848732401,-4.3357659026,-556.1780812809,2623.3410017028,2914.5670708931,-2157.7888432953,2913.8077551252,1.3188089314,2913.4435598258,-1.4411887608,-941.2388851371,-1511.5076096052,-2031.5094611128,1.0654424368,-1336.8613114991,2915.0223341828,-5.0454025744,2913.4776291202,2914.0800111803,2913.5730613473,-1687.388170388,2915.035904081,2914.2026382027,0.3584559077,-0.4188851795,-294.3323913471,-293.4059849163,2914.6825282768,2914.6046980816,-0.073227443,-274.9793875915,-183.6928539276,-2534.4694370733,0.3374582731,-292.7034053539,-303.5477881264,0.8515358123,-920.8732343053,2913.114289475,-160.8842445721,2914.5891076112,-285.0254011993,2913.4032513485,2914.0231550069,2914.8175885962,2913.1098636274,2913.0577910758,2914.8920113077,-0.496706684,-0.8325090423,2913.1130407755,2913.9211499016,-580.0812314149,-2234.7658349582,0.4443379988,-2614.715429886,-1.0108517159,2913.5191721811,2914.0713447739,2914.1689814805,-759.0056861676,-1.0531189465,2913.2457746128,2913.5083380383,2914.4521087912,0.602799534,-1687.0359204225,2913.5709360071,2914.3537643167,1464.2271031556,2624.6502152502,2913.6608903318,2913.1455789024,2913.4478059019,-378.7055077219,2914.6132254827,2914.0072601401,2913.147805665,2914.7464372385,0.1165023834,-0.0466433166,2914.6095616907,-183.4527397263,-2.0694213952,2914.6139144844,0.3774616457,0.3133082384,2914.1579361027,0.6018342625,-0.0936557092,-185.6518860712,445.2861053591,2914.2480751179,0.4654922072,-294.0324217517,2913.1151466424,-0.022911884,2914.648899946,2913.8752267965,-378.4295460417,2914.2115964354,2624.5571124742,1753.4161420524,2914.4098435772,-0.8760445047,-0.9883921534,0.3403095008,0.5023192445,-0.8770413662,-1696.3969627831,2914.2072025212,-1.0595999801,0.0740514425,0.0197310088,-58.9946934058,-789.2841493723,2913.9564790322,2914.9639256903,-366.1193782535,2914.0721806801,2914.3319109007,-0.6106855524,-1983.2975968827,0.0012969756,2914.4719696041,-968.5511966348,2913.1213096449,2913.1982879439,-1561.7722778918,-1.009757454,0.4295741837,2914.55237721,0.0740249296,-0.7710018852,-995.1691977117,2914.4044356871,0.6180981156,2914.840635838,2915.0172174338,2913.2405384683,-0.4034295201,-184.1752332443,-0.814569541,-1549.3269673438,-469.3936683212,0.2703776883,2913.8890460184,-183.2806458985,2914.8660169406,-1593.4059811022,-468.6312662858,9.8713464768,-0.5302969894,-209.1725516284,-1337.3433736574,0.0884333247,2913.9363928152,2914.8077156669,-10.9352649003,-1135.9002251186,-921.3360938552,-1337.1520783686,2913.9551837214,2914.3675003528,2914.0505869929,2914.0608893578,2913.7385133099,2914.9180995677,2334.037573817,-183.6206871847,-790.4453397383,-2.9995160115,-278.9515069906,-198.1987517573,2914.338040951,2913.9101831384,1.4700218257,-1511.099857548,-1510.6482763499,1384.51608625,-0.1442207333,2914.1998064389,0.2812894339,2913.9577323724,2914.2552735609,2914.1727894736,2914.4425059859,-469.6120897967,11.0310865399,2914.158061446,0.4631741363,-556.7218521283,2914.1343126727,-2863.7816512948,2914.9283803516,2.4698987046,-0.9380492477,2045.8601582241,-996.6826760045,2914.1722536062,2914.4349661124,-0.8512823332,2914.1965584606,2914.2045413004,2625.5249338483,2914.1962097716,2913.3591398473,2913.4310921699,-279.1318282978,-6.0155437737,2914.5553926737,0.1184983707,0.5095474084,-1982.1086265093,-293.1128328756,-0.4478967479,2913.051419494,-0.0027784249,-469.9304273864,-1076.9925248482,2913.8946396785,2914.3168246603,-1336.6541040554,21.470982941,2044.009140075,2913.9013208426,2913.14528441,2913.9898607555,2914.5724604464,2914.3490894949,1755.355216245,2914.0600605216,-1511.6516729139,-1749.7493094294,2914.7133544479,2914.4156553318,-0.7001168353,2913.5066646476,0.3428078878,2350.0995353556,958.1204628093,2913.2022480929,2234.6027333382,2914.1253394403,0.1115320255,-0.4713545626,2914.8021919948,2914.9297967586,-1510.8247932263,-555.1966624382,-1983.1781651345,0.4629552658,-182.4076693339,5.6888029928,0.1299201571,2914.0290030787,25.0485481238,0.3329437343,2914.1510706589,0.2729804302,-0.4583424973,2913.2803332709,-183.3509556727,-0.1310806108,-1511.7091104428,-0.4094862335,-555.086704247,0.7563901134,2913.4607329653,0.864066933,-750.5466440413,-0.5576876789,2913.9572453102,-0.331970181,-2158.1030898449,-231.3280833466,-1.2288670231,-277.8591259027,-2.3024132995,-2679.4441317167,0.273604779,-24.8935208079,-2595.3808731035,-0.6832984858,-0.0859807187,2914.3127452479,0.6845673829,3.0531839367,2914.2370196431,2914.4655404525,3204.3558775529,-182.581385657,-476.4118550196,-3.6965676153,2914.8353097029,1173.30747696,2913.5001063594,-0.5417441754,-18.6304373925,-995.7696083381,2045.1041567039,-0.0090627063,0.1491096441,0.7282454617,2915.0476529408,-789.1793593997,2914.8589699313,0.0628683509,2913.3174302899,2914.2218017888,7.6130661299,2626.403182382,-2080.2927769467,1.3775027305,-0.2133825401,8.3354442201,-185.3981382204,2914.8581317849,-1.0851397901,-336.0216324805,-293.979198811,-6.0394874459,-854.353813401,-1601.5466233649,-555.0169802521,2914.6063792024,-316.9133714767,2913.4156805546,2913.3017619794,-285.9114880525,2914.0886255858,2913.4131765724,2913.9204685022,2913.2684929821,-1077.1371576586,-2532.1396210579,-1568.6747285863,2914.2219196599,-1335.802467068,-1103.1587197136,2914.6940734423,-1511.2020288115,2913.3360334535,2913.0569623927,-0.2096462973,-0.3763207701,2914.4129007567,-0.3335356499,2914.7144563528,0.8090171152,3.0064021837,0.8053895828,-0.7681344074,-1.0926371468,2914.6656524638,2914.0776999581,-1511.234492809,2913.2139485708,2914.6570380435,0.6317930809,2913.1478420701,-0.0259315517,0.5700658395,-1697.4762451942,2913.1336045163,2914.1151216883,2913.7501971074,-0.5833775902,-208.4915633676,-0.9407606222,5.6514117687,-2679.2235703515,0.4447698093,-0.241255248,-790.3104312382,-207.4658181127,-0.0702539652,5.3171509668,-556.0187917523,2915.0458891374,2914.3549833989,-1.0071022223,-224.7356311899,2914.4328212535,-0.2606894091,2914.0080459878,2913.9673504806,2913.3300784186,-0.4264052667,2914.1701333113,0.7788458823,-0.6569984878,33.7953729555,-1984.3219001944,2914.6352761335,2913.4719696265,24.5064333116,-921.4159739651,2913.8808712614,-2157.4264231061,-2115.1844724056,0.8727645931,2914.7176893057,-790.253296842,2914.0716061643,2914.0764647481,-183.3503087874,-1171.652923379,-555.8671992266,-995.6793463397,2914.5411988554,2914.2299224533,-0.2962541598,2913.7918091433,-2704.4288541776,2913.5670335275,2914.6834750623,2914.4684346006,-995.5179131186,0.0785918879,2914.9258187723,-0.4937983898,0.5487619868,2913.9164717692,0.8143652671,2336.1890955007,-579.8371544001,0.2185231866,1.4602244235,-10.1646987645,2913.5177660247,-21.6266279094,2913.1576907446,8.1529381606,2913.9757696627,-2418.3951569042,0.8950704526,0.8811617088,2913.8012002593,0.5960843556,-1337.6748624366,-183.1205536126,-996.0007650045,-0.5836665691,-183.6668731966,2913.5144097528,2913.9572479825,-0.2066732926,0.0277346422,-0.526824903,-2.7929532039,2914.6256436795,2913.1214278345,883.5310471444,2913.924756171,0.3995410012,2913.2954039176,-0.9691907387,-0.2786879244,-0.3562141216,-0.140845697,4.6674049605,0.750972583,2915.0138479392,2914.0116290095,0.5569277363,2913.3377721696,2914.7202737808,2913.4869920817,0.1546699924,-2365.1440906358,2333.9982488479,2914.2354597755,2914.5706994407,-0.3317915369,2913.8672674798,-572.2130785419,2913.6553085039,-554.8152060879,2913.314305022,0.6676613588,2913.5558827019,-0.8962363272,-166.4512193718,-172.8435041712,-869.1313265428,-2280.3160590871,2913.5095609053,2913.6735846792,0.2051542344,-144.9065490673,2915.0192796383,2913.3203293568,-183.9181950571,-377.7236708739,-0.3587430465,0.6025517551,2913.9795711489,101.7035548865,1464.0887321014,-292.9146747094,0.2831586694,-0.0757161639,-2247.9954193652,2914.0033624411,-1686.7808185778
